{"learner":{"attributes":{"best_iteration":"399","best_score":"0.7736198209447129"},"feature_names":["met_pt","met_phi","leading_lep_pt","leading_lep_eta","leading_lep_phi","trailing_lep_pt","trailing_lep_eta","trailing_lep_phi","dilep_pt","dilep_m","nhtaus_phi","tau_pt","delta_tau_met_phi","m_T","dilep_eta","dilep_phi","dilep_dphi_met"],"feature_types":["float","float","float","float","float","float","float","float","float","float","float","float","float","float","float","float","float"],"gradient_booster":{"model":{"gbtree_model_param":{"num_parallel_tree":"1","num_trees":"400"},"iteration_indptr":[0,1,2,3,4,5,6,7,8,9,10,11,12,13,14,15,16,17,18,19,20,21,22,23,24,25,26,27,28,29,30,31,32,33,34,35,36,37,38,39,40,41,42,43,44,45,46,47,48,49,50,51,52,53,54,55,56,57,58,59,60,61,62,63,64,65,66,67,68,69,70,71,72,73,74,75,76,77,78,79,80,81,82,83,84,85,86,87,88,89,90,91,92,93,94,95,96,97,98,99,100,101,102,103,104,105,106,107,108,109,110,111,112,113,114,115,116,117,118,119,120,121,122,123,124,125,126,127,128,129,130,131,132,133,134,135,136,137,138,139,140,141,142,143,144,145,146,147,148,149,150,151,152,153,154,155,156,157,158,159,160,161,162,163,164,165,166,167,168,169,170,171,172,173,174,175,176,177,178,179,180,181,182,183,184,185,186,187,188,189,190,191,192,193,194,195,196,197,198,199,200,201,202,203,204,205,206,207,208,209,210,211,212,213,214,215,216,217,218,219,220,221,222,223,224,225,226,227,228,229,230,231,232,233,234,235,236,237,238,239,240,241,242,243,244,245,246,247,248,249,250,251,252,253,254,255,256,257,258,259,260,261,262,263,264,265,266,267,268,269,270,271,272,273,274,275,276,277,278,279,280,281,282,283,284,285,286,287,288,289,290,291,292,293,294,295,296,297,298,299,300,301,302,303,304,305,306,307,308,309,310,311,312,313,314,315,316,317,318,319,320,321,322,323,324,325,326,327,328,329,330,331,332,333,334,335,336,337,338,339,340,341,342,343,344,345,346,347,348,349,350,351,352,353,354,355,356,357,358,359,360,361,362,363,364,365,366,367,368,369,370,371,372,373,374,375,376,377,378,379,380,381,382,383,384,385,386,387,388,389,390,391,392,393,394,395,396,397,398,399,400],"tree_info":[0,0,0,0,0,0,0,0,0,0,0,0,0,0,0,0,0,0,0,0,0,0,0,0,0,0,0,0,0,0,0,0,0,0,0,0,0,0,0,0,0,0,0,0,0,0,0,0,0,0,0,0,0,0,0,0,0,0,0,0,0,0,0,0,0,0,0,0,0,0,0,0,0,0,0,0,0,0,0,0,0,0,0,0,0,0,0,0,0,0,0,0,0,0,0,0,0,0,0,0,0,0,0,0,0,0,0,0,0,0,0,0,0,0,0,0,0,0,0,0,0,0,0,0,0,0,0,0,0,0,0,0,0,0,0,0,0,0,0,0,0,0,0,0,0,0,0,0,0,0,0,0,0,0,0,0,0,0,0,0,0,0,0,0,0,0,0,0,0,0,0,0,0,0,0,0,0,0,0,0,0,0,0,0,0,0,0,0,0,0,0,0,0,0,0,0,0,0,0,0,0,0,0,0,0,0,0,0,0,0,0,0,0,0,0,0,0,0,0,0,0,0,0,0,0,0,0,0,0,0,0,0,0,0,0,0,0,0,0,0,0,0,0,0,0,0,0,0,0,0,0,0,0,0,0,0,0,0,0,0,0,0,0,0,0,0,0,0,0,0,0,0,0,0,0,0,0,0,0,0,0,0,0,0,0,0,0,0,0,0,0,0,0,0,0,0,0,0,0,0,0,0,0,0,0,0,0,0,0,0,0,0,0,0,0,0,0,0,0,0,0,0,0,0,0,0,0,0,0,0,0,0,0,0,0,0,0,0,0,0,0,0,0,0,0,0,0,0,0,0,0,0,0,0,0,0,0,0,0,0,0,0,0,0,0,0,0,0,0,0,0,0,0,0,0,0,0,0,0,0,0,0,0,0,0,0,0,0,0,0,0,0,0,0,0,0,0,0,0,0],"trees":[{"base_weights":[-5.8561996E-2,2.306996E-2,-6.48715E-1,-1.9328336E-1,1.2315697E-1,-5.331E-1,-9.92687E-1,-3.9644837E-1,-1.555621E-1,1.647746E-1,-1.1462925E-1,-4.3368134E-1,-7.9942226E-1,-6.858727E-1,-1.0552801E0,-8.194659E-1,-2.8225014E-1,-1.01916656E-1,-2.5344118E-1,6.4094104E-2,2.4363236E-1,-4.443476E-2,-5.6006503E-1,-2.584923E-1,-4.982893E-1,-7.148325E-1,-1.1400583E0,-8.0643016E-1,-1.4557417E-1,-9.501645E-1,-1.160116E0,3.1587325E-2,-8.840208E-2,-1.966254E-2,-4.9100533E-2,-3.1237602E-2,-4.899165E-3,-2.0425055E-2,-4.5464702E-2,-1.6763719E-2,1.5103178E-2,2.747911E-2,-1.7310975E-2,-3.4916855E-2,1.7541128E-3,-2.273906E-2,-7.270813E-2,-4.4778317E-2,-1.1079571E-2,9.565369E-2,-5.081291E-2,-6.4718E-2,-9.4971575E-2,1.0159287E-2,-1.16981745E-1,-8.584531E-2,1.9423302E-2,-5.3096604E-2,8.6522214E-2,-9.630861E-2,2.0903705E-2,-1.17044285E-1,-3.0668745E-2],"categories":[],"categories_nodes":[],"categories_segments":[],"categories_sizes":[],"default_left":[0,0,0,0,0,0,0,0,0,0,0,0,0,0,0,0,0,0,0,0,0,0,0,0,0,0,0,0,0,0,0,0,0,0,0,0,0,0,0,0,0,0,0,0,0,0,0,0,0,0,0,0,0,0,0,0,0,0,0,0,0,0,0],"id":0,"left_children":[1,3,5,7,9,11,13,15,17,19,21,23,25,27,29,31,33,35,37,39,41,43,45,47,49,51,53,55,57,59,61,-1,-1,-1,-1,-1,-1,-1,-1,-1,-1,-1,-1,-1,-1,-1,-1,-1,-1,-1,-1,-1,-1,-1,-1,-1,-1,-1,-1,-1,-1,-1,-1],"loss_changes":[8.4313873E2,3.3296646E2,8.404559E1,3.721042E1,1.0405618E2,4.185434E1,9.528198E0,3.6528427E1,2.1520966E1,7.1022125E1,4.8955433E1,1.3032272E1,1.1634796E1,5.9605904E0,3.763214E0,1.2096237E1,1.0640999E1,2.9528736E1,1.4279617E1,7.922609E1,6.5195984E1,2.5584444E1,1.1678734E1,8.767212E0,1.2631332E1,4.927902E0,3.2326431E0,4.1266556E0,7.565863E0,3.5864258E0,1.5493774E0,0E0,0E0,0E0,0E0,0E0,0E0,0E0,0E0,0E0,0E0,0E0,0E0,0E0,0E0,0E0,0E0,0E0,0E0,0E0,0E0,0E0,0E0,0E0,0E0,0E0,0E0,0E0,0E0,0E0,0E0,0E0,0E0],"parents":[2147483647,0,0,1,1,2,2,3,3,4,4,5,5,6,6,7,7,8,8,9,9,10,10,11,11,12,12,13,13,14,14,15,15,16,16,17,17,18,18,19,19,20,20,21,21,22,22,23,23,24,24,25,25,26,26,27,27,28,28,29,29,30,30],"right_children":[2,4,6,8,10,12,14,16,18,20,22,24,26,28,30,32,34,36,38,40,42,44,46,48,50,52,54,56,58,60,62,-1,-1,-1,-1,-1,-1,-1,-1,-1,-1,-1,-1,-1,-1,-1,-1,-1,-1,-1,-1,-1,-1,-1,-1,-1,-1,-1,-1,-1,-1,-1,-1],"split_conditions":[1.011619E2,4.571067E1,1.2475745E2,1.5127214E1,8.078887E1,1.4489308E2,5.1955257E1,3.497938E1,6.777103E1,6.88261E1,2.609475E0,3.893222E1,1.8856558E2,4.610233E1,1.8251497E2,-2.7752075E0,8.8957054E1,2.0680626E1,1.8594514E0,2.2539488E1,3.119572E2,-2.574557E0,5.06025E1,6.684611E1,3.1535463E1,1.8254876E0,-3.0898438E0,2.8979003E0,1.2661983E0,3.0063477E0,3.065918E0,3.1587325E-2,-8.840208E-2,-1.966254E-2,-4.9100533E-2,-3.1237602E-2,-4.899165E-3,-2.0425055E-2,-4.5464702E-2,-1.6763719E-2,1.5103178E-2,2.747911E-2,-1.7310975E-2,-3.4916855E-2,1.7541128E-3,-2.273906E-2,-7.270813E-2,-4.4778317E-2,-1.1079571E-2,9.565369E-2,-5.081291E-2,-6.4718E-2,-9.4971575E-2,1.0159287E-2,-1.16981745E-1,-8.584531E-2,1.9423302E-2,-5.3096604E-2,8.6522214E-2,-9.630861E-2,2.0903705E-2,-1.17044285E-1,-3.0668745E-2],"split_indices":[13,0,0,13,13,13,8,8,8,0,16,8,8,8,0,15,2,8,12,13,8,16,8,0,2,1,10,15,15,10,7,0,0,0,0,0,0,0,0,0,0,0,0,0,0,0,0,0,0,0,0,0,0,0,0,0,0,0,0,0,0,0,0],"split_type":[0,0,0,0,0,0,0,0,0,0,0,0,0,0,0,0,0,0,0,0,0,0,0,0,0,0,0,0,0,0,0,0,0,0,0,0,0,0,0,0,0,0,0,0,0,0,0,0,0,0,0,0,0,0,0,0,0,0,0,0,0,0,0],"sum_hessian":[1.7500146E4,1.537446E4,2.125686E3,4.862498E3,1.0511962E4,1.5928507E3,5.328354E2,7.5994714E2,4.1025513E3,8.94645E3,1.5655112E3,1.1617831E3,4.3106757E2,9.231079E1,4.405246E2,1.6023238E2,5.997148E2,2.6514104E3,1.4511406E3,3.9303047E3,5.016146E3,1.3533429E3,2.1216827E2,3.143639E2,8.474192E2,3.477978E2,8.3269745E1,7.506818E1,1.7242615E1,2.249937E2,2.1553091E2,8.411127E0,1.5182124E2,4.2665594E2,1.7305884E2,5.3179486E2,2.1196155E3,1.1676819E3,2.8345877E2,1.0719929E3,2.8583118E3,4.667509E3,3.4863687E2,2.2793901E2,1.1254039E3,7.1704285E1,1.4046399E2,1.3689053E2,1.7747337E2,5.046709E0,8.423725E2,2.7293945E2,7.485836E1,1.8925512E0,8.13772E1,7.1493454E1,3.5747175E0,1.2826781E1,4.4158325E0,2.2268066E2,2.3130364E0,2.1258707E2,2.9438498E0],"tree_param":{"num_deleted":"0","num_feature":"17","num_nodes":"63","size_leaf_vector":"1"}},{"base_weights":[-5.3941265E-2,2.3320498E-2,-5.4005516E-1,-1.7401607E-1,1.14422284E-1,-4.2714697E-1,-9.257384E-1,-2.0126188E-1,2.1993935E-1,-6.999666E-2,1.7123097E-1,-3.7649578E-1,-1.0526301E0,-1.0321633E0,-7.7446264E-1,-1.7367538E-4,-2.5212094E-1,5.7950723E-1,9.1157526E-2,-3.767633E-2,-5.021186E-1,1.8350461E-1,-4.902684E-1,-2.6925194E-1,-5.1882905E-1,-2.4159642E-1,-1.1289825E0,-1.0485643E0,-3.6838022E-1,-5.880689E-1,-9.629102E-1,-2.6752526E-2,5.2275006E-3,-4.1879755E-2,-1.839565E-2,7.0278645E-2,-2.0190014E-2,-2.2691473E-2,2.2051258E-2,-1.5076528E-2,2.9926912E-3,-7.485416E-2,-2.7279591E-2,4.4786062E-2,1.5472886E-2,-5.3882953E-2,5.9221644E-2,-1.913142E-2,-5.163005E-2,2.6553035E-2,-5.3192575E-2,6.743355E-2,-8.7498836E-2,-7.403783E-2,-1.1625643E-1,-9.1192655E-2,-1.1130382E-1,2.5885347E-2,-7.970984E-2,-2.802026E-2,-7.770609E-2,-7.201954E-2,-1.209551E-1],"categories":[],"categories_nodes":[],"categories_segments":[],"categories_sizes":[],"default_left":[0,0,0,0,0,0,0,0,0,0,0,0,0,0,0,0,0,0,0,0,0,0,0,0,0,0,0,0,0,0,0,0,0,0,0,0,0,0,0,0,0,0,0,0,0,0,0,0,0,0,0,0,0,0,0,0,0,0,0,0,0,0,0],"id":1,"left_children":[1,3,5,7,9,11,13,15,17,19,21,23,25,27,29,31,33,35,37,39,41,43,45,47,49,51,53,55,57,59,61,-1,-1,-1,-1,-1,-1,-1,-1,-1,-1,-1,-1,-1,-1,-1,-1,-1,-1,-1,-1,-1,-1,-1,-1,-1,-1,-1,-1,-1,-1,-1,-1],"loss_changes":[6.559619E2,2.7095776E2,1.039079E2,5.1140854E1,1.08039764E2,5.8361786E1,7.9192505E0,4.5541595E1,1.42283535E1,3.3905464E1,6.409476E1,2.6073349E1,8.296356E0,3.0419312E0,7.43013E0,1.2632635E1,4.0302673E1,7.958563E0,9.441893E0,1.7290722E1,9.343384E0,5.881259E1,7.882248E0,1.879818E1,7.7104187E0,8.235628E0,7.862091E-1,1.6873779E0,2.6626675E0,6.590908E0,5.8116684E0,0E0,0E0,0E0,0E0,0E0,0E0,0E0,0E0,0E0,0E0,0E0,0E0,0E0,0E0,0E0,0E0,0E0,0E0,0E0,0E0,0E0,0E0,0E0,0E0,0E0,0E0,0E0,0E0,0E0,0E0,0E0,0E0],"parents":[2147483647,0,0,1,1,2,2,3,3,4,4,5,5,6,6,7,7,8,8,9,9,10,10,11,11,12,12,13,13,14,14,15,15,16,16,17,17,18,18,19,19,20,20,21,21,22,22,23,23,24,24,25,25,26,26,27,27,28,28,29,29,30,30],"right_children":[2,4,6,8,10,12,14,16,18,20,22,24,26,28,30,32,34,36,38,40,42,44,46,48,50,52,54,56,58,60,62,-1,-1,-1,-1,-1,-1,-1,-1,-1,-1,-1,-1,-1,-1,-1,-1,-1,-1,-1,-1,-1,-1,-1,-1,-1,-1,-1,-1,-1,-1,-1,-1],"split_conditions":[9.638274E1,4.571067E1,1.2475745E2,1.831543E0,2.5386057E1,2.085061E2,6.868495E1,-1.1401367E0,-2.036331E0,8.235917E1,1.3961087E2,7.015086E1,1.2919589E2,2.96875E0,1.8747693E2,2.3483994E1,2.8164467E1,2.2080078E0,2.8332495E1,2.1704239E1,2.2507689E1,-1.5871582E0,1.5522461E0,9.6617165E1,-3.0664062E0,-7.5593996E-1,-2.3508077E0,1.4894957E2,-2.3508077E0,-5.3816724E-1,4.4989574E1,-2.6752526E-2,5.2275006E-3,-4.1879755E-2,-1.839565E-2,7.0278645E-2,-2.0190014E-2,-2.2691473E-2,2.2051258E-2,-1.5076528E-2,2.9926912E-3,-7.485416E-2,-2.7279591E-2,4.4786062E-2,1.5472886E-2,-5.3882953E-2,5.9221644E-2,-1.913142E-2,-5.163005E-2,2.6553035E-2,-5.3192575E-2,6.743355E-2,-8.7498836E-2,-7.403783E-2,-1.1625643E-1,-9.1192655E-2,-1.1130382E-1,2.5885347E-2,-7.970984E-2,-2.802026E-2,-7.770609E-2,-7.201954E-2,-1.209551E-1],"split_indices":[13,0,0,3,11,11,11,3,16,13,5,11,13,7,0,11,13,10,11,11,11,3,3,0,10,15,16,0,16,14,5,0,0,0,0,0,0,0,0,0,0,0,0,0,0,0,0,0,0,0,0,0,0,0,0,0,0,0,0,0,0,0,0],"split_type":[0,0,0,0,0,0,0,0,0,0,0,0,0,0,0,0,0,0,0,0,0,0,0,0,0,0,0,0,0,0,0,0,0,0,0,0,0,0,0,0,0,0,0,0,0,0,0,0,0,0,0,0,0,0,0,0,0,0,0,0,0,0,0],"sum_hessian":[1.746396E4,1.5069763E4,2.3941995E3,4.75942E3,1.0310342E4,1.8536527E3,5.4054663E2,4.45201E3,3.0741016E2,2.428013E3,7.8823296E3,1.7162722E3,1.3738054E2,3.138941E2,2.2665254E2,8.989028E2,3.5531072E3,8.014363E1,2.2726654E2,2.26006E3,1.679528E2,7.739452E3,1.428773E2,9.804353E2,7.358369E2,1.2178787E1,1.2520175E2,3.0575955E2,8.134536E0,1.1601876E2,1.1063378E2,1.4675157E2,7.521512E2,1.0298242E3,2.523283E3,6.930958E1,1.0834057E1,6.548664E1,1.6177989E2,8.4510693E2,1.4149531E3,7.986656E1,8.808624E1,7.583258E2,6.9811265E3,1.3722359E2,5.653723E0,7.466576E2,2.3377771E2,1.176817E1,7.240687E2,4.952484E0,7.226303E0,1.1792074E1,1.13409676E2,1.0287758E2,2.0288199E2,3.4634988E0,4.671037E0,4.5074844E1,7.094392E1,5.773642E1,5.2897358E1],"tree_param":{"num_deleted":"0","num_feature":"17","num_nodes":"63","size_leaf_vector":"1"}},{"base_weights":[-4.184242E-2,2.4552956E-2,-5.4845816E-1,-1.944737E-1,9.295928E-2,-4.167434E-1,-8.445177E-1,-2.225331E-1,2.0331474E-1,1.23295456E-1,-8.963738E-2,-3.0840266E-1,-6.462223E-1,-5.4814863E-1,-9.217509E-1,-3.7772498E-1,-1.5754494E-1,1.5503468E-1,8.343121E-1,3.7276514E-2,2.1426022E-1,1.6910568E-2,-3.7742215E-1,-5.6133795E-1,-2.5138146E-1,-5.568885E-1,-1.0218881E0,-1.1761954E-1,-6.512285E-1,-8.3877146E-1,-1.0874001E0,-8.3669744E-2,-3.369611E-2,-1.0493504E-3,-2.0431975E-2,8.3809905E-3,5.538826E-2,-6.3948914E-2,1.0842053E-1,-1.4136083E-2,1.0562283E-2,2.4798896E-2,-2.3163829E-2,5.163034E-3,-3.3017896E-2,-2.8078383E-2,-7.26239E-2,-5.9883315E-2,4.7438826E-2,3.976163E-2,-2.7278328E-2,-6.211672E-2,-2.7329667E-2,-1.1652956E-1,-6.441134E-2,1.3339521E-1,-3.7394132E-2,-8.51661E-2,-3.113204E-2,-8.496784E-2,-4.583329E-3,-7.7562414E-2,-1.17628455E-1],"categories":[],"categories_nodes":[],"categories_segments":[],"categories_sizes":[],"default_left":[0,0,0,0,0,0,0,0,0,0,0,0,0,0,0,0,0,0,0,0,0,0,0,0,0,0,0,0,0,0,0,0,0,0,0,0,0,0,0,0,0,0,0,0,0,0,0,0,0,0,0,0,0,0,0,0,0,0,0,0,0,0,0],"id":2,"left_children":[1,3,5,7,9,11,13,15,17,19,21,23,25,27,29,31,33,35,37,39,41,43,45,47,49,51,53,55,57,59,61,-1,-1,-1,-1,-1,-1,-1,-1,-1,-1,-1,-1,-1,-1,-1,-1,-1,-1,-1,-1,-1,-1,-1,-1,-1,-1,-1,-1,-1,-1,-1,-1],"loss_changes":[5.857669E2,2.3071094E2,7.833374E1,4.0949615E1,6.500606E1,3.45699E1,1.3693726E1,3.4470795E1,7.242857E0,7.872595E1,5.1281647E1,1.358786E1,1.445195E1,5.7239304E0,5.831726E0,1.8611374E1,1.6608166E1,6.37435E0,6.9438314E0,6.317225E1,7.360579E1,1.4735389E1,1.5028374E1,7.053196E0,1.0922951E1,6.461914E0,3.8430786E0,1.0347237E1,6.9044113E0,2.8258667E0,3.5318604E0,0E0,0E0,0E0,0E0,0E0,0E0,0E0,0E0,0E0,0E0,0E0,0E0,0E0,0E0,0E0,0E0,0E0,0E0,0E0,0E0,0E0,0E0,0E0,0E0,0E0,0E0,0E0,0E0,0E0,0E0,0E0,0E0],"parents":[2147483647,0,0,1,1,2,2,3,3,4,4,5,5,6,6,7,7,8,8,9,9,10,10,11,11,12,12,13,13,14,14,15,15,16,16,17,17,18,18,19,19,20,20,21,21,22,22,23,23,24,24,25,25,26,26,27,27,28,28,29,29,30,30],"right_children":[2,4,6,8,10,12,14,16,18,20,22,24,26,28,30,32,34,36,38,40,42,44,46,48,50,52,54,56,58,60,62,-1,-1,-1,-1,-1,-1,-1,-1,-1,-1,-1,-1,-1,-1,-1,-1,-1,-1,-1,-1,-1,-1,-1,-1,-1,-1,-1,-1,-1,-1,-1,-1],"split_conditions":[1.011619E2,4.1585613E1,1.08976555E2,1.831543E0,8.078887E1,1.3592046E2,5.1955257E1,2.953474E1,2.847168E0,7.048789E1,8.739416E1,4.452203E1,2.1880151E2,-1.1401367E0,1.6964575E2,2.0105143E1,-1.5965233E0,2.5792792E0,2.3803839E1,2.3419601E1,3.119572E2,2.609475E0,2.637348E0,2.133789E0,-2.949707E0,1.2026367E0,8.882873E1,-2.195996E0,8.907471E-1,2.4744682E0,1.20938736E2,-8.3669744E-2,-3.369611E-2,-1.0493504E-3,-2.0431975E-2,8.3809905E-3,5.538826E-2,-6.3948914E-2,1.0842053E-1,-1.4136083E-2,1.0562283E-2,2.4798896E-2,-2.3163829E-2,5.163034E-3,-3.3017896E-2,-2.8078383E-2,-7.26239E-2,-5.9883315E-2,4.7438826E-2,3.976163E-2,-2.7278328E-2,-6.211672E-2,-2.7329667E-2,-1.1652956E-1,-6.441134E-2,1.3339521E-1,-3.7394132E-2,-8.51661E-2,-3.113204E-2,-8.496784E-2,-4.583329E-3,-7.7562414E-2,-1.17628455E-1],"split_indices":[13,0,0,3,13,13,8,13,4,0,0,0,13,3,8,8,14,16,8,13,8,16,16,6,4,6,0,1,4,14,13,0,0,0,0,0,0,0,0,0,0,0,0,0,0,0,0,0,0,0,0,0,0,0,0,0,0,0,0,0,0,0,0],"split_type":[0,0,0,0,0,0,0,0,0,0,0,0,0,0,0,0,0,0,0,0,0,0,0,0,0,0,0,0,0,0,0,0,0,0,0,0,0,0,0,0,0,0,0,0,0,0,0,0,0,0,0,0,0,0,0,0,0,0,0,0,0,0,0],"sum_hessian":[1.7412992E4,1.5396172E4,2.0168196E3,3.6637043E3,1.1732468E4,1.3974928E3,6.1932684E2,3.4227117E3,2.4099251E2,1.0061241E4,1.6712261E3,9.509009E2,4.4659192E2,1.2970471E2,4.896221E2,1.00882446E3,2.4138872E3,2.2502098E2,1.5971533E1,5.1719263E3,4.889315E3,1.220351E3,4.5087518E2,1.7330566E2,7.775952E2,3.6280005E2,8.3791855E1,2.5469297E1,1.0423541E2,3.3025128E2,1.5937083E2,8.0697876E1,9.281266E2,5.828228E2,1.8310646E3,1.9195288E2,3.3068096E1,2.0894542E0,1.3882078E1,1.4309006E3,3.7410256E3,4.5458975E3,3.434177E2,1.1101523E3,1.101986E2,3.5447443E2,9.640076E1,1.6765796E2,5.647706E0,2.4262775E1,7.5333246E2,2.9479233E2,6.800773E1,5.9224815E1,2.4567036E1,3.1914787E0,2.2277819E1,6.462351E1,3.9611897E1,3.256997E2,4.551565E0,3.7513313E1,1.2185751E2],"tree_param":{"num_deleted":"0","num_feature":"17","num_nodes":"63","size_leaf_vector":"1"}},{"base_weights":[-4.168443E-2,1.5945671E-2,-5.1075107E-1,-1.778578E-1,7.52857E-2,-4.102372E-1,-8.215525E-1,-3.6175612E-1,-1.499281E-1,-1.6991204E-1,1.0574063E-1,-3.621348E-1,-9.3003756E-1,-5.26601E-1,-8.8910544E-1,-6.8993384E-1,-2.7468112E-1,-1.9110653E-1,-1.6013512E-2,-1.3468157E-1,-6.774031E-1,1.1395247E-1,-4.126834E-1,-3.017687E-1,-4.9910572E-1,-1.5412981E-2,-1.0013946E0,-6.0238796E-1,7.8295076E-1,-9.503937E-1,-6.8212914E-1,-1.0749308E-1,-5.2671332E-2,-3.2213304E-2,5.147654E-2,-5.6988467E-3,-2.4713855E-2,-3.7002742E-2,5.652398E-3,3.1190937E-2,-1.6825268E-2,4.2416394E-2,-7.816289E-2,1.4143988E-2,-3.9775027E-3,-6.192943E-2,-1.2528059E-2,-2.6717067E-2,-5.0292432E-2,-9.0387166E-2,-4.5662407E-2,-7.1009144E-2,1.06592715E-1,7.1277276E-2,-1.02504514E-1,-9.486102E-2,-3.6408443E-2,-1.3761895E-2,1.2758557E-1,-9.6656635E-2,2.5481412E-2,-2.4459865E-2,-8.50065E-2],"categories":[],"categories_nodes":[],"categories_segments":[],"categories_sizes":[],"default_left":[0,0,0,0,0,0,0,0,0,0,0,0,0,0,0,0,0,0,0,0,0,0,0,0,0,0,0,0,0,0,0,0,0,0,0,0,0,0,0,0,0,0,0,0,0,0,0,0,0,0,0,0,0,0,0,0,0,0,0,0,0,0,0],"id":3,"left_children":[1,3,5,7,9,11,13,15,17,19,21,23,25,27,29,31,33,35,37,39,41,43,45,47,49,51,53,55,57,59,61,-1,-1,-1,-1,-1,-1,-1,-1,-1,-1,-1,-1,-1,-1,-1,-1,-1,-1,-1,-1,-1,-1,-1,-1,-1,-1,-1,-1,-1,-1,-1,-1],"loss_changes":[4.6957242E2,1.7793208E2,5.9039642E1,1.8574074E1,8.846981E1,3.5623383E1,8.766418E0,1.3455414E1,1.736921E1,2.3313427E1,4.4904846E1,1.0747269E1,7.893387E0,9.286861E0,4.1169434E0,5.684147E0,1.4364559E1,1.8092003E1,1.907473E1,1.8423157E1,1.0059303E1,4.383902E1,9.691599E0,6.250084E0,6.4938126E0,8.1077175E0,5.287216E0,6.628624E0,2.5777152E0,5.845886E0,6.358345E0,0E0,0E0,0E0,0E0,0E0,0E0,0E0,0E0,0E0,0E0,0E0,0E0,0E0,0E0,0E0,0E0,0E0,0E0,0E0,0E0,0E0,0E0,0E0,0E0,0E0,0E0,0E0,0E0,0E0,0E0,0E0,0E0],"parents":[2147483647,0,0,1,1,2,2,3,3,4,4,5,5,6,6,7,7,8,8,9,9,10,10,11,11,12,12,13,13,14,14,15,15,16,16,17,17,18,18,19,19,20,20,21,21,22,22,23,23,24,24,25,25,26,26,27,27,28,28,29,29,30,30],"right_children":[2,4,6,8,10,12,14,16,18,20,22,24,26,28,30,32,34,36,38,40,42,44,46,48,50,52,54,56,58,60,62,-1,-1,-1,-1,-1,-1,-1,-1,-1,-1,-1,-1,-1,-1,-1,-1,-1,-1,-1,-1,-1,-1,-1,-1,-1,-1,-1,-1,-1,-1,-1,-1],"split_conditions":[1.022235E2,4.1585613E1,1.2475745E2,1.3152765E1,2.2301706E1,2.085061E2,5.2399582E1,3.497938E1,1.5263348E0,8.235917E1,1.9097975E2,9.1473495E1,1.23484955E2,2.847168E0,1.2126329E2,3.7948399E0,2.1417758E0,-1.5965233E0,1.7129618E1,-3.003093E0,-2.5141602E0,8.133325E1,9.156703E1,2.1313565E0,9.599129E1,5.6676907E1,3.6833298E1,5.4002434E1,-2.0542924E0,3.0615234E0,8.9340164E1,-1.0749308E-1,-5.2671332E-2,-3.2213304E-2,5.147654E-2,-5.6988467E-3,-2.4713855E-2,-3.7002742E-2,5.652398E-3,3.1190937E-2,-1.6825268E-2,4.2416394E-2,-7.816289E-2,1.4143988E-2,-3.9775027E-3,-6.192943E-2,-1.2528059E-2,-2.6717067E-2,-5.0292432E-2,-9.0387166E-2,-4.5662407E-2,-7.1009144E-2,1.06592715E-1,7.1277276E-2,-1.02504514E-1,-9.486102E-2,-3.6408443E-2,-1.3761895E-2,1.2758557E-1,-9.6656635E-2,2.5481412E-2,-2.4459865E-2,-8.50065E-2],"split_indices":[13,0,0,13,11,11,8,8,14,13,11,8,13,4,11,13,14,14,8,16,4,13,9,16,8,0,2,11,12,10,9,0,0,0,0,0,0,0,0,0,0,0,0,0,0,0,0,0,0,0,0,0,0,0,0,0,0,0,0,0,0,0,0],"split_type":[0,0,0,0,0,0,0,0,0,0,0,0,0,0,0,0,0,0,0,0,0,0,0,0,0,0,0,0,0,0,0,0,0,0,0,0,0,0,0,0,0,0,0,0,0,0,0,0,0,0,0,0,0,0,0,0,0,0,0,0,0,0,0],"sum_hessian":[1.7369453E4,1.5469782E4,1.8996704E3,3.6258438E3,1.1843938E4,1.4371976E3,4.624728E2,4.764948E2,3.1493489E3,1.3080477E3,1.0535891E4,1.3170173E3,1.2018025E2,8.782108E1,3.746517E2,9.846518E1,3.7802963E2,2.4083572E3,7.4099176E2,1.2243198E3,8.3727974E1,1.0372372E4,1.6351825E2,9.163603E2,4.0065707E2,8.785639E0,1.11394615E2,8.352717E1,4.2939167E0,2.862868E2,8.83649E1,2.765295E1,7.081223E1,3.5715384E2,2.0875795E1,7.102711E2,1.698086E3,1.2531243E2,6.156793E2,8.502013E1,1.1392997E3,6.97191E0,7.6756065E1,8.799117E3,1.5732548E3,9.4458336E1,6.9059906E1,7.8386633E2,1.3249399E2,3.613029E1,3.645268E2,5.5582256E0,3.2274127E0,1.1194638E0,1.10275154E2,3.2837757E1,5.068941E1,1.7487254E0,2.5451915E0,2.826914E2,3.5954168E0,2.5190775E1,6.317412E1],"tree_param":{"num_deleted":"0","num_feature":"17","num_nodes":"63","size_leaf_vector":"1"}},{"base_weights":[-3.673441E-2,2.4717515E-2,-4.3318063E-1,-1.18081786E-1,9.395342E-2,-3.235991E-1,-7.5492847E-1,-1.3772008E-1,4.4366592E-1,3.5988706E-1,7.410792E-2,-2.2673671E-1,-6.10597E-1,-6.6308707E-1,-9.504412E-1,6.518549E-2,-1.7214085E-1,7.267752E-2,5.808911E-1,4.01887E-1,-2.7440977E-3,5.4863874E-2,3.4766954E-1,3.606482E-1,-2.4544552E-1,-5.481267E-1,-1.0454545E0,-6.999953E-1,-7.4019484E-2,-8.416829E-1,-1.1308339E0,1.1801134E-2,-2.8957693E-2,-3.4467928E-2,-1.4075832E-2,-1.1348888E-2,9.6051596E-2,-2.572289E-2,6.76206E-2,-1.8422334E-2,4.339437E-2,-1.5055144E-2,9.9761546E-2,6.388364E-3,-4.7667798E-2,5.7968147E-2,2.7175112E-2,1.1073969E-3,1.0497417E-1,6.204481E-2,-2.567783E-2,-5.8605917E-2,1.2592161E-2,-1.11065805E-1,1.6242823E-2,6.369532E-2,-7.150891E-2,-6.17852E-2,6.2010676E-2,-8.626019E-2,7.5710185E-2,-3.232361E-2,-1.1559615E-1],"categories":[],"categories_nodes":[],"categories_segments":[],"categories_sizes":[],"default_left":[0,0,0,0,0,0,0,0,0,0,0,0,0,0,0,0,0,0,0,0,0,0,0,0,0,0,0,0,0,0,0,0,0,0,0,0,0,0,0,0,0,0,0,0,0,0,0,0,0,0,0,0,0,0,0,0,0,0,0,0,0,0,0],"id":4,"left_children":[1,3,5,7,9,11,13,15,17,19,21,23,25,27,29,31,33,35,37,39,41,43,45,47,49,51,53,55,57,59,61,-1,-1,-1,-1,-1,-1,-1,-1,-1,-1,-1,-1,-1,-1,-1,-1,-1,-1,-1,-1,-1,-1,-1,-1,-1,-1,-1,-1,-1,-1,-1,-1],"loss_changes":[4.2230655E2,1.4839856E2,8.177692E1,5.4130005E1,5.332122E1,4.8151E1,9.96875E0,3.3091095E1,8.398056E0,1.068837E1,4.950705E1,1.4378258E1,1.131842E1,8.751755E0,2.7042236E0,1.2921597E1,2.187954E1,7.6971397E0,9.830669E0,1.1895683E1,1.1066523E1,4.2175827E1,1.0729897E1,9.754876E0,1.2531433E1,9.913902E0,4.4241257E0,8.142456E0,9.817638E0,4.6720963E0,9.896393E-1,0E0,0E0,0E0,0E0,0E0,0E0,0E0,0E0,0E0,0E0,0E0,0E0,0E0,0E0,0E0,0E0,0E0,0E0,0E0,0E0,0E0,0E0,0E0,0E0,0E0,0E0,0E0,0E0,0E0,0E0,0E0,0E0],"parents":[2147483647,0,0,1,1,2,2,3,3,4,4,5,5,6,6,7,7,8,8,9,9,10,10,11,11,12,12,13,13,14,14,15,15,16,16,17,17,18,18,19,19,20,20,21,21,22,22,23,23,24,24,25,25,26,26,27,27,28,28,29,29,30,30],"right_children":[2,4,6,8,10,12,14,16,18,20,22,24,26,28,30,32,34,36,38,40,42,44,46,48,50,52,54,56,58,60,62,-1,-1,-1,-1,-1,-1,-1,-1,-1,-1,-1,-1,-1,-1,-1,-1,-1,-1,-1,-1,-1,-1,-1,-1,-1,-1,-1,-1,-1,-1,-1,-1],"split_conditions":[9.5481544E1,4.6664352E1,1.12706955E2,2.0771484E0,-1.7792969E0,1.3592046E2,1.9291296E2,-1.3764648E0,3.4239983E1,8.1849205E1,1.831543E0,-2.949707E0,2.4671104E2,9.724397E1,6.1503754E1,9.3281105E1,1.5127214E1,2.733808E0,-2.4929175E0,1.897802E1,2.4184484E0,1.3961087E2,-1.6306152E0,3.858003E1,-3.0664062E0,9.724397E1,3.6842906E0,-3.1151295E0,2.1936035E-1,3.0615234E0,8.535096E1,1.1801134E-2,-2.8957693E-2,-3.4467928E-2,-1.4075832E-2,-1.1348888E-2,9.6051596E-2,-2.572289E-2,6.76206E-2,-1.8422334E-2,4.339437E-2,-1.5055144E-2,9.9761546E-2,6.388364E-3,-4.7667798E-2,5.7968147E-2,2.7175112E-2,1.1073969E-3,1.0497417E-1,6.204481E-2,-2.567783E-2,-5.8605917E-2,1.2592161E-2,-1.11065805E-1,1.6242823E-2,6.369532E-2,-7.150891E-2,-6.17852E-2,6.2010676E-2,-8.626019E-2,7.5710185E-2,-3.232361E-2,-1.1559615E-1],"split_indices":[13,0,0,3,3,13,0,3,0,13,3,4,13,9,5,2,13,16,1,8,15,5,10,5,10,9,12,16,4,10,9,0,0,0,0,0,0,0,0,0,0,0,0,0,0,0,0,0,0,0,0,0,0,0,0,0,0,0,0,0,0,0,0],"split_type":[0,0,0,0,0,0,0,0,0,0,0,0,0,0,0,0,0,0,0,0,0,0,0,0,0,0,0,0,0,0,0,0,0,0,0,0,0,0,0,0,0,0,0,0,0,0,0,0,0,0,0,0,0,0,0,0,0,0,0,0,0,0,0],"sum_hessian":[1.7332928E4,1.5007586E4,2.3253425E3,4.9002E3,1.0107386E4,1.7360731E3,5.892695E2,4.7354087E3,1.6479164E2,7.007022E2,9.406683E3,1.299335E3,4.3673822E2,4.0392072E2,1.853488E2,6.866732E2,4.0487354E3,4.4909195E1,1.19882454E2,6.2787366E2,7.282858E1,8.78957E3,6.171132E2,3.954351E1,1.2597914E3,3.8385522E2,5.2882996E1,3.799279E2,2.399283E1,1.19168365E2,6.618043E1,5.9825714E2,8.841604E1,6.2154596E2,3.4271895E3,3.784569E1,7.063501E0,1.2067971E1,1.0781448E2,3.2313854E1,5.955598E2,6.419326E1,8.635322E0,8.643772E3,1.4579694E2,1.5050969E2,4.6660358E2,2.690884E1,1.2634669E1,1.558072E1,1.2442107E3,3.63528E2,2.0327185E1,5.0250866E1,2.6321316E0,3.7814608E0,3.7614642E2,1.3514446E1,1.0478383E1,1.18083786E2,1.0845795E0,2.4153495E0,6.376508E1],"tree_param":{"num_deleted":"0","num_feature":"17","num_nodes":"63","size_leaf_vector":"1"}},{"base_weights":[-3.317509E-2,-2.1585084E-2,-5.6572765E-1,-2.4205936E-1,-2.481985E-3,-3.6719814E-1,-6.6667676E-1,-4.46422E-2,-3.2574314E-1,-1.6816413E-2,3.3712855E-1,-1.3246737E-1,-5.9540623E-1,-3.0285427E-1,-7.4869794E-1,7.502803E-1,-7.01886E-2,-4.3923488E-1,-1.8391736E-1,2.50573E-1,-3.412121E-2,5.2747124E-1,2.66942E-1,-2.3220772E-1,1.0611233E0,-8.7530524E-1,-1.3165152E-1,5.305529E-1,-5.865054E-1,-2.4597216E-1,-7.8279865E-1,1.4054927E-1,-2.8899727E-2,-2.4517173E-2,8.160562E-4,-2.335754E-2,-4.941221E-2,-1.296541E-2,-6.5314576E-2,1.4736658E-3,3.0142132E-2,-4.6034055E-4,-1.50427045E-2,3.9806537E-2,1.0832465E-1,3.6133554E-2,1.0531552E-2,1.1779107E-2,-5.8432173E-2,1.7623892E-1,3.3304874E-2,-9.892594E-2,-4.541262E-2,-2.4150623E-2,1.229586E-1,-1.1098209E-2,1.4648078E-1,-2.7077867E-2,-9.5758036E-2,-8.5399136E-2,3.0271461E-2,-1.2229557E-1,-7.1952455E-2],"categories":[],"categories_nodes":[],"categories_segments":[],"categories_sizes":[],"default_left":[0,0,0,0,0,0,0,0,0,0,0,0,0,0,0,0,0,0,0,0,0,0,0,0,0,0,0,0,0,0,0,0,0,0,0,0,0,0,0,0,0,0,0,0,0,0,0,0,0,0,0,0,0,0,0,0,0,0,0,0,0,0,0],"id":5,"left_children":[1,3,5,7,9,11,13,15,17,19,21,23,25,27,29,31,33,35,37,39,41,43,45,47,49,51,53,55,57,59,61,-1,-1,-1,-1,-1,-1,-1,-1,-1,-1,-1,-1,-1,-1,-1,-1,-1,-1,-1,-1,-1,-1,-1,-1,-1,-1,-1,-1,-1,-1,-1,-1],"loss_changes":[1.06664246E2,7.124545E1,7.132103E0,2.2268768E1,7.579373E1,6.6867466E0,7.018173E0,8.2305E0,1.51640625E1,6.913164E1,8.282974E0,7.811593E0,8.160328E0,1.1266672E1,3.1922226E0,9.002619E0,5.3635955E0,5.8152466E0,1.0678689E1,1.08859825E1,4.817088E1,1.1712185E1,7.0211525E0,7.3974605E0,2.0068588E0,1.4504471E0,4.0612826E0,7.530436E0,3.8471918E0,4.929112E0,4.2567825E0,0E0,0E0,0E0,0E0,0E0,0E0,0E0,0E0,0E0,0E0,0E0,0E0,0E0,0E0,0E0,0E0,0E0,0E0,0E0,0E0,0E0,0E0,0E0,0E0,0E0,0E0,0E0,0E0,0E0,0E0,0E0,0E0],"parents":[2147483647,0,0,1,1,2,2,3,3,4,4,5,5,6,6,7,7,8,8,9,9,10,10,11,11,12,12,13,13,14,14,15,15,16,16,17,17,18,18,19,19,20,20,21,21,22,22,23,23,24,24,25,25,26,26,27,27,28,28,29,29,30,30],"right_children":[2,4,6,8,10,12,14,16,18,20,22,24,26,28,30,32,34,36,38,40,42,44,46,48,50,52,54,56,58,60,62,-1,-1,-1,-1,-1,-1,-1,-1,-1,-1,-1,-1,-1,-1,-1,-1,-1,-1,-1,-1,-1,-1,-1,-1,-1,-1,-1,-1,-1,-1,-1,-1],"split_conditions":[1.9097975E2,2.1805956E1,2.3103786E2,-2.1347003E0,2.0073242E0,-1.08306885E-1,-2.5110388E0,-2.1274414E0,1.9460229E0,-1.8605957E0,2.8221014E1,-1.3511044E-1,9.186241E1,-8.048096E-1,5.211886E1,8.22649E-1,-1.204834E0,-1.6806289E0,9.509131E1,2.6038498E1,6.514155E1,2.4950516E0,8.714242E-1,5.7307175E1,-9.8413086E-1,1.4092029E0,3.0392096E0,-1.2836914E0,-2.9244955E0,-1.20666504E-1,6.8628944E1,1.4054927E-1,-2.8899727E-2,-2.4517173E-2,8.160562E-4,-2.335754E-2,-4.941221E-2,-1.296541E-2,-6.5314576E-2,1.4736658E-3,3.0142132E-2,-4.6034055E-4,-1.50427045E-2,3.9806537E-2,1.0832465E-1,3.6133554E-2,1.0531552E-2,1.1779107E-2,-5.8432173E-2,1.7623892E-1,3.3304874E-2,-9.892594E-2,-4.541262E-2,-2.4150623E-2,1.229586E-1,-1.1098209E-2,1.4648078E-1,-2.7077867E-2,-9.5758036E-2,-8.5399136E-2,3.0271461E-2,-1.2229557E-1,-7.1952455E-2],"split_indices":[11,11,11,16,3,3,16,6,16,3,5,14,9,3,2,1,4,14,9,11,11,16,1,5,10,15,16,3,16,3,2,0,0,0,0,0,0,0,0,0,0,0,0,0,0,0,0,0,0,0,0,0,0,0,0,0,0,0,0,0,0,0,0],"split_type":[0,0,0,0,0,0,0,0,0,0,0,0,0,0,0,0,0,0,0,0,0,0,0,0,0,0,0,0,0,0,0,0,0,0,0,0,0,0,0,0,0,0,0,0,0,0,0,0,0,0,0,0,0,0,0,0,0,0,0,0,0,0,0],"sum_hessian":[1.7282135E4,1.691505E4,3.6708374E2,1.347819E3,1.5567232E4,1.25300865E2,2.4178288E2,4.017023E2,9.461167E2,1.4937687E4,6.2954584E2,6.2546806E1,6.2754055E1,4.534368E1,1.964392E2,1.1624224E1,3.9007806E2,5.243915E2,4.2172525E2,9.0715E2,1.4030536E4,1.678444E2,4.6170142E2,5.84666E1,4.080206E0,3.8581047E1,2.417301E1,1.1292951E1,3.405073E1,1.3000082E1,1.8343912E2,6.9133368E0,4.710887E0,1.199826E2,2.700955E2,1.1157632E2,4.1281512E2,3.7915475E2,4.2570507E1,1.6112695E2,7.460231E2,1.1191286E4,2.8392498E3,1.3753677E2,3.0307627E1,2.9069388E2,1.7100752E2,2.9655111E1,2.881149E1,1.3547361E0,2.7254698E0,2.9303823E1,9.277223E0,2.3129032E1,1.0439777E0,7.217819E0,4.075131E0,1.9331964E1,1.4718765E1,5.9026833E0,7.0973988E0,2.075212E1,1.62687E2],"tree_param":{"num_deleted":"0","num_feature":"17","num_nodes":"63","size_leaf_vector":"1"}},{"base_weights":[-2.6416285E-2,-1.3445874E-1,1.613145E-2,-9.4498664E-2,-3.619129E-1,-1.3191938E-1,5.138254E-2,-1.9683635E-1,-5.0600287E-2,-3.2876956E-1,-7.970281E-1,-7.223148E-2,-6.55114E-1,1.0546355E-1,-1.1028128E-1,8.833212E-2,-2.3549195E-1,-3.266344E-2,-3.1619465E-1,-3.4777084E-1,4.6327874E-1,-8.4184766E-1,4.2467292E-2,9.557873E-2,-1.7123158E-1,-7.5893216E-2,-8.511491E-1,-5.3712595E-2,1.4150637E-1,-1.8722134E-2,-4.7354785E-1,9.0220995E-2,-1.8707787E-3,-2.6565297E-2,1.2349836E-2,-1.212481E-3,-2.8297871E-2,-3.8847715E-2,1.2943265E-2,-1.2920685E-3,-3.9859485E-2,9.590338E-2,-7.401142E-2,1.1249433E-2,-8.982713E-2,1.997987E-2,-1.45923095E-2,8.764334E-3,-2.7135987E-2,9.741758E-2,-1.8236263E-2,-7.087345E-2,-1.1091349E-1,-1.2235634E-2,7.2612627E-3,1.59655E-2,-2.9193897E-2,2.4070921E-3,-4.1949134E-2,-6.044219E-2,1.35975005E-2],"categories":[],"categories_nodes":[],"categories_segments":[],"categories_sizes":[],"default_left":[0,0,0,0,0,0,0,0,0,0,0,0,0,0,0,0,0,0,0,0,0,0,0,0,0,0,0,0,0,0,0,0,0,0,0,0,0,0,0,0,0,0,0,0,0,0,0,0,0,0,0,0,0,0,0,0,0,0,0,0,0],"id":6,"left_children":[1,3,5,7,9,11,13,15,17,19,21,23,25,27,29,31,33,35,37,39,41,43,-1,45,47,49,51,53,55,57,59,-1,-1,-1,-1,-1,-1,-1,-1,-1,-1,-1,-1,-1,-1,-1,-1,-1,-1,-1,-1,-1,-1,-1,-1,-1,-1,-1,-1,-1,-1],"loss_changes":[7.950329E1,4.4378975E1,6.476797E1,1.8667873E1,1.0263008E1,7.448378E1,8.764389E1,1.377483E1,1.3856892E1,1.0393211E1,3.1476288E0,3.562472E1,2.767186E1,4.310045E1,8.357499E1,1.3055734E1,1.1932735E1,1.4020793E1,5.9782104E0,1.1303932E1,1.0468163E1,2.7658272E0,0E0,2.0062462E1,3.4976093E1,7.2060456E0,5.915695E0,1.2040478E1,4.822609E1,3.4450527E1,4.0433723E1,0E0,0E0,0E0,0E0,0E0,0E0,0E0,0E0,0E0,0E0,0E0,0E0,0E0,0E0,0E0,0E0,0E0,0E0,0E0,0E0,0E0,0E0,0E0,0E0,0E0,0E0,0E0,0E0,0E0,0E0],"parents":[2147483647,0,0,1,1,2,2,3,3,4,4,5,5,6,6,7,7,8,8,9,9,10,10,11,11,12,12,13,13,14,14,15,15,16,16,17,17,18,18,19,19,20,20,21,21,23,23,24,24,25,25,26,26,27,27,28,28,29,29,30,30],"right_children":[2,4,6,8,10,12,14,16,18,20,22,24,26,28,30,32,34,36,38,40,42,44,-1,46,48,50,52,54,56,58,60,-1,-1,-1,-1,-1,-1,-1,-1,-1,-1,-1,-1,-1,-1,-1,-1,-1,-1,-1,-1,-1,-1,-1,-1,-1,-1,-1,-1,-1,-1],"split_conditions":[4.5470848E1,6.9392426E1,-1.8210416E0,3.4239983E1,2.085061E2,1.2475745E2,1.5315449E0,-2.3825703E0,2.729004E0,2.1699219E0,2.9187162E0,5.5404804E1,-5.0009093E0,5.632687E1,9.6617165E1,-2.3231118E0,2.6728754E0,1.0263197E2,3.088379E0,-1.7212573E0,3.939147E1,4.5106537E1,4.2467292E-2,4.1375908E1,-4.263422E0,-1.6964844E0,4.6305298E1,2.0583155E0,1.2005942E2,1.050965E2,5.077292E0,9.0220995E-2,-1.8707787E-3,-2.6565297E-2,1.2349836E-2,-1.212481E-3,-2.8297871E-2,-3.8847715E-2,1.2943265E-2,-1.2920685E-3,-3.9859485E-2,9.590338E-2,-7.401142E-2,1.1249433E-2,-8.982713E-2,1.997987E-2,-1.45923095E-2,8.764334E-3,-2.7135987E-2,9.741758E-2,-1.8236263E-2,-7.087345E-2,-1.1091349E-1,-1.2235634E-2,7.2612627E-3,1.59655E-2,-2.9193897E-2,2.4070921E-3,-4.1949134E-2,-6.044219E-2,1.35975005E-2],"split_indices":[0,11,12,0,11,0,12,15,10,6,16,2,12,0,0,14,1,2,10,14,0,2,0,11,12,15,5,16,5,2,12,0,0,0,0,0,0,0,0,0,0,0,0,0,0,0,0,0,0,0,0,0,0,0,0,0,0,0,0,0,0],"split_type":[0,0,0,0,0,0,0,0,0,0,0,0,0,0,0,0,0,0,0,0,0,0,0,0,0,0,0,0,0,0,0,0,0,0,0,0,0,0,0,0,0,0,0,0,0,0,0,0,0,0,0,0,0,0,0,0,0,0,0,0,0],"sum_hessian":[1.7293275E4,4.8854297E3,1.2407846E4,4.156597E3,7.288324E2,2.3856455E3,1.0022199E4,1.2467166E3,2.9098806E3,6.7887695E2,4.9955452E1,2.142374E3,2.432716E2,7.5101836E3,2.5120159E3,1.486699E2,1.0980466E3,2.7268467E3,1.8303392E2,6.6352E2,1.5356958E1,4.8487553E1,1.4679008E0,7.949418E2,1.3474323E3,6.1865646E1,1.8140596E2,1.3864972E3,6.1236865E3,2.0071719E3,5.04844E2,1.6416714E1,1.322532E2,1.0131829E3,8.4863754E1,2.521041E3,2.058056E2,1.5759898E2,2.543493E1,8.760369E1,5.759163E2,1.102012E1,4.3368387E0,2.6512291E0,4.5836323E1,5.554223E2,2.3951945E2,3.758422E2,9.7159E2,4.9450083E0,5.692064E1,1.1929777E2,6.210819E1,8.983662E2,4.8813098E2,5.8781943E3,2.454921E2,1.8143776E3,1.9279439E2,4.1561365E2,8.923034E1],"tree_param":{"num_deleted":"0","num_feature":"17","num_nodes":"61","size_leaf_vector":"1"}},{"base_weights":[-3.0747987E-2,-1.3938816E-1,4.7525475E-3,-1.5848874E-1,1.6480912E-1,1.5331389E-2,-4.4046807E-1,-3.298325E-2,-1.9453491E-1,1.9704573E-2,4.75148E-1,-1.9446573E-1,3.357624E-2,-3.326969E-1,-8.1036043E-1,-4.9479965E-2,9.026843E-1,-1.5708338E-1,-3.1685373E-1,-1.6927457E-1,2.563556E-1,8.381255E-1,-5.7488773E-2,-1.7075795E-3,-2.8780374E-1,-9.586101E-2,6.1716728E-2,-3.846246E-1,6.538786E-1,5.751993E-2,-8.467443E-1,-1.17021E-3,-4.0945552E-2,-7.5647645E-2,1.09469734E-1,-7.508515E-3,-2.0339161E-2,-5.449414E-2,-2.7166849E-2,2.8488338E-2,-3.1078318E-2,3.4555185E-3,9.190222E-2,-6.3609846E-2,9.195227E-2,5.291106E-2,-3.666642E-2,-1.3643316E-2,2.0336738E-2,-4.5885295E-2,-1.4615237E-2,-3.3797703E-3,-4.902724E-2,1.0444912E-2,-9.432357E-3,-6.956472E-2,-2.6107272E-2,-1.9675827E-2,1.3623439E-1,-9.514064E-2,-2.706251E-2],"categories":[],"categories_nodes":[],"categories_segments":[],"categories_sizes":[],"default_left":[0,0,0,0,0,0,0,0,0,0,0,0,0,0,0,0,0,0,0,0,0,0,0,0,0,0,0,0,0,0,0,0,0,0,0,0,0,0,0,0,0,0,0,0,0,0,0,0,0,0,0,0,0,0,0,0,0,0,0,0,0],"id":7,"left_children":[1,3,5,7,9,11,13,15,17,19,21,23,25,27,29,31,33,35,37,39,41,43,45,47,49,51,53,55,57,-1,59,-1,-1,-1,-1,-1,-1,-1,-1,-1,-1,-1,-1,-1,-1,-1,-1,-1,-1,-1,-1,-1,-1,-1,-1,-1,-1,-1,-1,-1,-1],"loss_changes":[6.643478E1,2.4676239E1,6.1159416E1,1.8054825E1,1.12997055E1,4.855509E1,1.174453E1,1.3812923E1,1.4157501E1,7.7430863E0,1.5508993E1,1.825932E1,4.2511295E1,1.2294725E1,3.8798485E0,1.1928207E1,5.7680645E0,9.008137E0,7.3342056E0,6.279252E0,1.1262133E1,6.2995605E0,6.241686E0,9.203712E0,1.6500698E1,5.1005226E1,6.3930164E1,8.424366E0,7.575071E0,0E0,3.7212029E0,0E0,0E0,0E0,0E0,0E0,0E0,0E0,0E0,0E0,0E0,0E0,0E0,0E0,0E0,0E0,0E0,0E0,0E0,0E0,0E0,0E0,0E0,0E0,0E0,0E0,0E0,0E0,0E0,0E0,0E0],"parents":[2147483647,0,0,1,1,2,2,3,3,4,4,5,5,6,6,7,7,8,8,9,9,10,10,11,11,12,12,13,13,14,14,15,15,16,16,17,17,18,18,19,19,20,20,21,21,22,22,23,23,24,24,25,25,26,26,27,27,28,28,30,30],"right_children":[2,4,6,8,10,12,14,16,18,20,22,24,26,28,30,32,34,36,38,40,42,44,46,48,50,52,54,56,58,-1,60,-1,-1,-1,-1,-1,-1,-1,-1,-1,-1,-1,-1,-1,-1,-1,-1,-1,-1,-1,-1,-1,-1,-1,-1,-1,-1,-1,-1,-1,-1],"split_conditions":[4.3369957E1,1.8908691E0,1.9097975E2,-1.0756836E0,1.4978081E0,2.1805956E1,1.005137E0,-1.0910645E0,5.615881E1,6.5769386E-1,-1.5685974E-2,-2.11091E0,-2.0074184E0,5.9201634E-1,-2.3945293E0,1.0693537E2,-2.4316788E0,-9.420393E-1,-2.1236598E0,2.6475378E1,1.5737305E0,2.069682E1,2.294578E0,2.1070196E1,1.6000901E0,1.08976555E2,1.8594514E0,-1.4243976E0,-1.4672852E-1,5.751993E-2,2.2354996E2,-1.17021E-3,-4.0945552E-2,-7.5647645E-2,1.09469734E-1,-7.508515E-3,-2.0339161E-2,-5.449414E-2,-2.7166849E-2,2.8488338E-2,-3.1078318E-2,3.4555185E-3,9.190222E-2,-6.3609846E-2,9.195227E-2,5.291106E-2,-3.666642E-2,-1.3643316E-2,2.0336738E-2,-4.5885295E-2,-1.4615237E-2,-3.3797703E-3,-4.902724E-2,1.0444912E-2,-9.432357E-3,-6.956472E-2,-2.6107272E-2,-1.9675827E-2,1.3623439E-1,-9.514064E-2,-2.706251E-2],"split_indices":[0,3,11,3,16,11,12,3,11,12,12,16,12,12,14,2,15,12,1,5,7,11,14,11,16,0,12,12,4,0,0,0,0,0,0,0,0,0,0,0,0,0,0,0,0,0,0,0,0,0,0,0,0,0,0,0,0,0,0,0,0],"split_type":[0,0,0,0,0,0,0,0,0,0,0,0,0,0,0,0,0,0,0,0,0,0,0,0,0,0,0,0,0,0,0,0,0,0,0,0,0,0,0,0,0,0,0,0,0,0,0,0,0,0,0,0,0,0,0,0,0,0,0,0,0],"sum_hessian":[1.7224262E4,4.241457E3,1.2982805E4,3.9913208E3,2.5013637E2,1.2682424E4,3.0038025E2,8.909899E2,3.1003308E3,1.7116743E2,7.896893E1,1.01390424E3,1.16685205E4,2.340789E2,6.6301346E1,8.764838E2,1.4506133E1,2.3753354E3,7.249953E2,9.532766E1,7.5839775E1,4.6623047E1,3.2345882E1,3.3111545E2,6.827888E2,2.0833535E3,9.585167E3,2.2295403E2,1.1124881E1,1.3175523E0,6.4983795E1,7.941715E2,8.231233E1,1.1997277E0,1.3306406E1,8.582498E2,1.5170856E3,1.1804805E2,6.0694727E2,2.2405672E1,7.292199E1,5.7609505E1,1.8230272E1,2.0829515E0,4.4540096E1,1.09186125E1,2.142727E1,2.0003539E2,1.3108008E2,3.082846E2,3.7450418E2,1.8010343E3,2.8231924E2,7.5247954E3,2.0603708E3,6.2070583E1,1.6088344E2,5.3834176E0,5.7414627E0,5.4442043E1,1.0541752E1],"tree_param":{"num_deleted":"0","num_feature":"17","num_nodes":"61","size_leaf_vector":"1"}},{"base_weights":[-1.9925255E-2,2.6239477E-2,-4.092705E-1,-6.536014E-2,9.691344E-2,-3.3348897E-1,-7.30459E-1,-8.545267E-2,2.2698845E-1,-8.291601E-2,1.4005604E-1,-2.9886645E-1,-7.687648E-1,-8.169041E-1,-5.115926E-1,-1.9737789E-1,-3.9890226E-2,1.872644E-1,9.1897404E-1,-4.0481623E-2,-4.95313E-1,1.811999E-1,1.1987143E-2,-3.646934E-1,-1.3919748E-1,3.8663548E-1,-8.7754923E-1,-8.4407526E-1,4.880273E-2,-1.662685E-1,-7.1021986E-1,-4.7242254E-2,-1.31202955E-2,5.92238E-4,-1.47327185E-2,-3.977575E-2,2.1873793E-2,-4.9173504E-2,1.3040291E-1,-1.3472417E-3,-4.9148425E-2,-1.8958846E-2,-6.675053E-2,9.619099E-5,2.3464693E-2,5.0087213E-3,-2.9013569E-2,-2.9871343E-2,-4.8684962E-2,1.2492434E-1,-1.5547109E-2,-3.108029E-2,1.2506041E-1,2.0618325E-2,-8.933773E-2,-1.7250558E-2,-8.679762E-2,1.5380028E-1,-6.240627E-2,5.76728E-2,-3.1176088E-2,-7.4399665E-2,3.302775E-2],"categories":[],"categories_nodes":[],"categories_segments":[],"categories_sizes":[],"default_left":[0,0,0,0,0,0,0,0,0,0,0,0,0,0,0,0,0,0,0,0,0,0,0,0,0,0,0,0,0,0,0,0,0,0,0,0,0,0,0,0,0,0,0,0,0,0,0,0,0,0,0,0,0,0,0,0,0,0,0,0,0,0,0],"id":8,"left_children":[1,3,5,7,9,11,13,15,17,19,21,23,25,27,29,31,33,35,37,39,41,43,45,47,49,51,53,55,57,59,61,-1,-1,-1,-1,-1,-1,-1,-1,-1,-1,-1,-1,-1,-1,-1,-1,-1,-1,-1,-1,-1,-1,-1,-1,-1,-1,-1,-1,-1,-1,-1,-1],"loss_changes":[3.093787E2,9.9626335E1,4.416635E1,3.939068E1,6.7406425E1,2.2045502E1,6.156128E0,3.1978268E1,1.1683861E1,2.9404572E1,3.6916122E1,1.4357216E1,1.3947781E1,5.86084E0,6.813467E0,3.296154E1,2.1947567E1,7.6205044E0,1.3221453E1,1.857757E1,8.127026E0,5.1081726E1,1.9636694E1,7.672882E0,9.272579E0,6.4209485E0,1.8868484E0,3.7015076E0,9.451296E0,4.310004E0,2.4896927E0,0E0,0E0,0E0,0E0,0E0,0E0,0E0,0E0,0E0,0E0,0E0,0E0,0E0,0E0,0E0,0E0,0E0,0E0,0E0,0E0,0E0,0E0,0E0,0E0,0E0,0E0,0E0,0E0,0E0,0E0,0E0,0E0],"parents":[2147483647,0,0,1,1,2,2,3,3,4,4,5,5,6,6,7,7,8,8,9,9,10,10,11,11,12,12,13,13,14,14,15,15,16,16,17,17,18,18,19,19,20,20,21,21,22,22,23,23,24,24,25,25,26,26,27,27,28,28,29,29,30,30],"right_children":[2,4,6,8,10,12,14,16,18,20,22,24,26,28,30,32,34,36,38,40,42,44,46,48,50,52,54,56,58,60,62,-1,-1,-1,-1,-1,-1,-1,-1,-1,-1,-1,-1,-1,-1,-1,-1,-1,-1,-1,-1,-1,-1,-1,-1,-1,-1,-1,-1,-1,-1,-1,-1],"split_conditions":[1.011619E2,5.403896E1,1.3453429E2,1.8608398E0,2.4424507E1,2.085061E2,1.0352338E2,2.953474E1,2.916504E0,8.235917E1,7.085862E1,9.22794E1,1.23484955E2,2.932129E0,1.8251497E2,3.5450756E1,7.320839E1,2.097302E1,1.9204102E0,2.1467628E2,5.103445E1,1.3152765E1,1.6964575E2,1.2919589E2,9.2312454E1,5.6676907E1,-3.0898438E0,-2.9213867E0,1.9551007E0,-2.2125523E0,1.9204102E0,-4.7242254E-2,-1.31202955E-2,5.92238E-4,-1.47327185E-2,-3.977575E-2,2.1873793E-2,-4.9173504E-2,1.3040291E-1,-1.3472417E-3,-4.9148425E-2,-1.8958846E-2,-6.675053E-2,9.619099E-5,2.3464693E-2,5.0087213E-3,-2.9013569E-2,-2.9871343E-2,-4.8684962E-2,1.2492434E-1,-1.5547109E-2,-3.108029E-2,1.2506041E-1,2.0618325E-2,-8.933773E-2,-1.7250558E-2,-8.679762E-2,1.5380028E-1,-6.240627E-2,5.76728E-2,-3.1176088E-2,-7.4399665E-2,3.302775E-2],"split_indices":[13,0,0,3,11,11,11,13,4,13,13,9,13,10,0,8,2,11,3,8,8,13,8,13,9,0,10,7,12,15,3,0,0,0,0,0,0,0,0,0,0,0,0,0,0,0,0,0,0,0,0,0,0,0,0,0,0,0,0,0,0,0,0],"split_type":[0,0,0,0,0,0,0,0,0,0,0,0,0,0,0,0,0,0,0,0,0,0,0,0,0,0,0,0,0,0,0,0,0,0,0,0,0,0,0,0,0,0,0,0,0,0,0,0,0,0,0,0,0,0,0,0,0,0,0,0,0,0,0],"sum_hessian":[1.7210953E4,1.5387399E4,1.8235541E3,6.7016074E3,8.685791E3,1.4770869E3,3.4646707E2,6.2713013E3,4.3030637E2,1.6804252E3,7.005366E3,1.3698163E3,1.0727065E2,2.4641042E2,1.0005665E2,1.8133738E3,4.4579272E3,4.0814694E2,2.2159424E1,1.5246423E3,1.5578284E2,5.301707E3,1.7036592E3,9.690293E2,4.0078702E2,9.010967E0,9.825969E1,2.3893614E2,7.474274E0,3.720713E1,6.2849518E1,3.504888E2,1.462885E3,3.1259316E3,1.3319956E3,2.0242708E1,3.8790424E2,4.6921077E0,1.7467318E1,1.4394668E3,8.5175514E1,5.6885178E1,9.889766E1,1.2128075E3,4.0888997E3,1.5136146E3,1.9004453E2,6.314246E2,3.3760468E2,3.7653797E0,3.9702164E2,5.3402853E0,3.6706822E0,1.2413217E0,9.7018364E1,8.49381E0,2.3044234E2,1.9259562E0,5.548318E0,5.607406E0,3.1599726E1,6.1149437E1,1.7000802E0],"tree_param":{"num_deleted":"0","num_feature":"17","num_nodes":"63","size_leaf_vector":"1"}},{"base_weights":[-1.7102933E-2,2.1030508E-2,-3.6453208E-1,-6.919793E-2,8.324178E-2,-2.6524508E-1,-6.041826E-1,-8.855003E-2,2.2144148E-1,-6.801651E-2,1.2889268E-1,-1.8762587E-1,-5.056634E-1,-7.2688735E-1,-4.2666712E-1,9.0521164E-2,-1.277621E-1,1.9992979E-1,1.0445821E0,-3.6277052E-2,-3.7823996E-1,1.4189896E-1,-2.6639828E-1,-2.5908512E-1,-4.1992612E-2,-5.361091E-1,3.8725126E-1,-6.728388E-1,-1.0323611E0,-5.9667192E-2,-5.370158E-1,7.816224E-3,1.04045644E-1,-2.2862097E-2,-8.4124785E-3,-4.1834034E-2,2.3107104E-2,-6.0729753E-2,1.5243438E-1,-1.9637328E-3,-5.3623386E-2,-7.658844E-2,-2.8578177E-2,1.7324487E-2,-1.7025073E-3,-3.0411651E-2,1.4066266E-1,-3.0068312E-2,-7.966113E-3,9.541121E-2,-7.923815E-3,-4.0804654E-2,-7.257152E-2,1.4196277E-1,-2.7461478E-2,6.738167E-2,-6.821364E-2,-4.68038E-3,-1.0731944E-1,2.2897748E-2,-6.6051185E-2,5.3597014E-2,-5.7309926E-2],"categories":[],"categories_nodes":[],"categories_segments":[],"categories_sizes":[],"default_left":[0,0,0,0,0,0,0,0,0,0,0,0,0,0,0,0,0,0,0,0,0,0,0,0,0,0,0,0,0,0,0,0,0,0,0,0,0,0,0,0,0,0,0,0,0,0,0,0,0,0,0,0,0,0,0,0,0,0,0,0,0,0,0],"id":9,"left_children":[1,3,5,7,9,11,13,15,17,19,21,23,25,27,29,31,33,35,37,39,41,43,45,47,49,51,53,55,57,59,61,-1,-1,-1,-1,-1,-1,-1,-1,-1,-1,-1,-1,-1,-1,-1,-1,-1,-1,-1,-1,-1,-1,-1,-1,-1,-1,-1,-1,-1,-1,-1,-1],"loss_changes":[2.2686472E2,8.662025E1,4.0137024E1,3.5441288E1,6.307739E1,2.2284431E1,1.0479065E1,4.1477306E1,6.757885E0,2.084254E1,3.6111435E1,9.440149E0,8.148346E0,4.1174927E0,8.264748E0,1.2379811E1,2.1304268E1,7.502763E0,8.679241E0,1.5984554E1,6.8236313E0,3.3846207E1,1.4553968E1,4.521641E0,1.1210424E1,6.572693E0,7.3675194E0,3.596222E0,1.637764E0,8.559962E0,6.400627E0,0E0,0E0,0E0,0E0,0E0,0E0,0E0,0E0,0E0,0E0,0E0,0E0,0E0,0E0,0E0,0E0,0E0,0E0,0E0,0E0,0E0,0E0,0E0,0E0,0E0,0E0,0E0,0E0,0E0,0E0,0E0,0E0],"parents":[2147483647,0,0,1,1,2,2,3,3,4,4,5,5,6,6,7,7,8,8,9,9,10,10,11,11,12,12,13,13,14,14,15,15,16,16,17,17,18,18,19,19,20,20,21,21,22,22,23,23,24,24,25,25,26,26,27,27,28,28,29,29,30,30],"right_children":[2,4,6,8,10,12,14,16,18,20,22,24,26,28,30,32,34,36,38,40,42,44,46,48,50,52,54,56,58,60,62,-1,-1,-1,-1,-1,-1,-1,-1,-1,-1,-1,-1,-1,-1,-1,-1,-1,-1,-1,-1,-1,-1,-1,-1,-1,-1,-1,-1,-1,-1,-1,-1],"split_conditions":[1.022235E2,5.236335E1,1.08976555E2,1.8908691E0,2.5518747E1,1.4489308E2,6.9392426E1,-1.2451172E0,4.9208074E0,8.235917E1,1.2005942E2,9.200517E1,9.863412E1,7.0454025E1,8.848868E1,9.966606E1,3.0865026E1,2.097302E1,8.8332924E1,1.9539497E2,2.1158184E1,8.078887E1,3.0451767E0,2.043457E0,3.5105152E1,1.6511157E2,-9.8413086E-1,2.0147917E1,8.535096E1,1.9291296E2,1.0705364E2,7.816224E-3,1.04045644E-1,-2.2862097E-2,-8.4124785E-3,-4.1834034E-2,2.3107104E-2,-6.0729753E-2,1.5243438E-1,-1.9637328E-3,-5.3623386E-2,-7.658844E-2,-2.8578177E-2,1.7324487E-2,-1.7025073E-3,-3.0411651E-2,1.4066266E-1,-3.0068312E-2,-7.966113E-3,9.541121E-2,-7.923815E-3,-4.0804654E-2,-7.257152E-2,1.4196277E-1,-2.7461478E-2,6.738167E-2,-6.821364E-2,-4.68038E-3,-1.0731944E-1,2.2897748E-2,-6.6051185E-2,5.3597014E-2,-5.7309926E-2],"split_indices":[13,0,0,3,11,13,11,3,12,13,5,9,9,5,9,9,13,11,9,2,11,13,15,7,2,11,10,5,9,0,13,0,0,0,0,0,0,0,0,0,0,0,0,0,0,0,0,0,0,0,0,0,0,0,0,0,0,0,0,0,0,0,0],"split_type":[0,0,0,0,0,0,0,0,0,0,0,0,0,0,0,0,0,0,0,0,0,0,0,0,0,0,0,0,0,0,0,0,0,0,0,0,0,0,0,0,0,0,0,0,0,0,0,0,0,0,0,0,0,0,0,0,0,0,0,0,0,0,0],"sum_hessian":[1.7122008E4,1.542943E4,1.6925778E3,6.2967676E3,9.132662E3,1.1982505E3,4.943273E2,5.904326E3,3.9244165E2,2.117178E3,7.015484E3,9.0715515E2,2.9109528E2,2.90458E2,2.038693E2,1.060409E3,4.843917E3,3.8365814E2,8.783506E0,1.9216843E3,1.9549362E2,6.7926265E3,2.2285738E2,6.080289E2,2.991263E2,2.8188348E2,9.211796E0,2.4951338E2,4.0944626E1,4.7484634E1,1.5638466E2,1.0478584E3,1.2550657E1,1.4615648E3,3.3823523E3,1.7801346E1,3.6585678E2,1.9170454E0,6.8664613E0,1.8607921E3,6.0892212E1,3.6245506E1,1.5924811E2,5.6735044E3,1.1191222E3,2.1874403E2,4.113345E0,4.9304465E2,1.14984215E2,9.894278E0,2.8923203E2,1.7012846E2,1.1175503E2,3.151387E0,6.060409E0,1.220805E0,2.4829257E2,1.7142937E0,3.9230335E1,3.2493652E1,1.4990983E1,4.6372304E0,1.5174744E2],"tree_param":{"num_deleted":"0","num_feature":"17","num_nodes":"63","size_leaf_vector":"1"}},{"base_weights":[-2.3589654E-2,1.8463617E-2,-3.1723717E-1,-4.8909876E-2,8.767644E-2,-2.5330815E-1,-6.4715475E-1,-1.9065666E-1,-1.178961E-2,-5.2844945E-2,1.2629808E-1,-1.9073342E-1,-4.415465E-1,-7.568917E-1,-2.5940564E-1,-2.1825181E-1,1.3520792E-1,-3.4862984E-2,2.1348712E-1,4.985708E-2,-1.6095117E-1,1.3544904E-1,-4.3744937E-1,-2.2185218E-1,6.416494E-2,-3.4832382E-1,-8.263512E-1,-1.7897488E-1,-8.040611E-1,3.1211E-1,-4.230255E-1,-6.5317675E-3,-2.829345E-2,1.9767813E-2,-8.332243E-2,-7.3708217E-3,6.880697E-3,-1.3816155E-2,2.6433257E-2,-1.2931521E-3,2.609905E-2,-3.8365934E-3,-3.40366E-2,1.1503492E-2,3.623152E-2,-1.2489308E-2,-5.7968795E-2,-1.8787175E-2,-4.238832E-2,-9.788247E-3,5.4828357E-2,-3.983805E-2,3.923367E-2,-3.582674E-2,-9.0660565E-2,-7.866271E-2,2.5829146E-2,-1.9542798E-3,-8.230124E-2,-5.8796693E-2,7.3130615E-2,-5.6376573E-2,3.0631397E-2],"categories":[],"categories_nodes":[],"categories_segments":[],"categories_sizes":[],"default_left":[0,0,0,0,0,0,0,0,0,0,0,0,0,0,0,0,0,0,0,0,0,0,0,0,0,0,0,0,0,0,0,0,0,0,0,0,0,0,0,0,0,0,0,0,0,0,0,0,0,0,0,0,0,0,0,0,0,0,0,0,0,0,0],"id":10,"left_children":[1,3,5,7,9,11,13,15,17,19,21,23,25,27,29,31,33,35,37,39,41,43,45,47,49,51,53,55,57,59,61,-1,-1,-1,-1,-1,-1,-1,-1,-1,-1,-1,-1,-1,-1,-1,-1,-1,-1,-1,-1,-1,-1,-1,-1,-1,-1,-1,-1,-1,-1,-1,-1],"loss_changes":[2.1162305E2,6.9908264E1,4.511403E1,3.997074E1,4.0139732E1,2.1117233E1,1.4603455E1,1.42062E1,3.1306374E1,1.7716515E1,2.9984962E1,1.074353E1,1.5793915E1,7.231949E0,7.4487453E0,1.4363167E1,7.6483536E0,2.200458E1,1.0041561E1,1.0856579E1,1.708205E1,2.6398186E1,4.057453E0,8.197594E0,1.165984E1,1.3599884E1,2.9320374E0,5.9700556E0,3.6988678E0,7.2178917E0,6.4602365E0,0E0,0E0,0E0,0E0,0E0,0E0,0E0,0E0,0E0,0E0,0E0,0E0,0E0,0E0,0E0,0E0,0E0,0E0,0E0,0E0,0E0,0E0,0E0,0E0,0E0,0E0,0E0,0E0,0E0,0E0,0E0,0E0],"parents":[2147483647,0,0,1,1,2,2,3,3,4,4,5,5,6,6,7,7,8,8,9,9,10,10,11,11,12,12,13,13,14,14,15,15,16,16,17,17,18,18,19,19,20,20,21,21,22,22,23,23,24,24,25,25,26,26,27,27,28,28,29,29,30,30],"right_children":[2,4,6,8,10,12,14,16,18,20,22,24,26,28,30,32,34,36,38,40,42,44,46,48,50,52,54,56,58,60,62,-1,-1,-1,-1,-1,-1,-1,-1,-1,-1,-1,-1,-1,-1,-1,-1,-1,-1,-1,-1,-1,-1,-1,-1,-1,-1,-1,-1,-1,-1,-1,-1],"split_conditions":[9.5481544E1,5.9418602E1,1.3453429E2,2.0405373E1,2.5028267E1,1.3592046E2,1.3006541E2,3.010887E0,1.6679688E0,4.935874E1,3.7050415E2,1.5759277E0,2.085061E2,4.819654E1,8.804309E1,-2.5110388E0,2.697536E0,1.9177971E0,2.2730145E1,2.6793818E0,8.739416E1,1.6679688E0,5.1539093E1,2.2665513E0,9.289107E1,9.724397E1,-1.9277054E0,4.6079166E1,2.069682E1,2.8948606E1,2.1484375E0,-6.5317675E-3,-2.829345E-2,1.9767813E-2,-8.332243E-2,-7.3708217E-3,6.880697E-3,-1.3816155E-2,2.6433257E-2,-1.2931521E-3,2.609905E-2,-3.8365934E-3,-3.40366E-2,1.1503492E-2,3.623152E-2,-1.2489308E-2,-5.7968795E-2,-1.8787175E-2,-4.238832E-2,-9.788247E-3,5.4828357E-2,-3.983805E-2,3.923367E-2,-3.582674E-2,-9.0660565E-2,-7.866271E-2,2.5829146E-2,-1.9542798E-3,-8.230124E-2,-5.8796693E-2,7.3130615E-2,-5.6376573E-2,3.0631397E-2],"split_indices":[13,0,0,13,11,13,11,16,3,13,0,3,11,2,9,16,1,16,11,16,0,3,11,16,9,9,16,11,11,5,4,0,0,0,0,0,0,0,0,0,0,0,0,0,0,0,0,0,0,0,0,0,0,0,0,0,0,0,0,0,0,0,0],"split_type":[0,0,0,0,0,0,0,0,0,0,0,0,0,0,0,0,0,0,0,0,0,0,0,0,0,0,0,0,0,0,0,0,0,0,0,0,0,0,0,0,0,0,0,0,0,0,0,0,0,0,0,0,0,0,0,0,0,0,0,0,0,0,0],"sum_hessian":[1.7135607E4,1.4989849E4,2.1457595E3,7.596003E3,7.393845E3,1.7989415E3,3.46818E2,1.5755397E3,6.0204634E3,1.5939677E3,5.7998774E3,1.351639E3,4.473025E2,2.6957382E2,7.724418E1,1.4528392E3,1.2270035E2,5.461889E3,5.5857434E2,8.176913E2,7.7627637E2,5.7079834E3,9.18943E1,1.2046958E3,1.4694325E2,3.6160532E2,8.569719E1,2.0703989E1,2.4886981E2,1.6990326E1,6.0253857E1,4.3242776E2,1.0204115E3,1.1601266E2,6.687697E0,3.9733572E3,1.4885317E3,7.034549E1,4.8822882E2,6.309831E2,1.867082E2,4.6189813E2,3.1437823E2,5.238146E3,4.6983752E2,2.9327608E1,6.2566696E1,1.0328983E3,1.7179747E2,1.10690125E2,3.6253124E1,3.391466E2,2.2458689E1,1.3342315E1,7.235488E1,8.329641E0,1.2374349E1,5.9179416E0,2.4295187E2,5.2707124E0,1.1719614E1,5.0697758E1,9.556099E0],"tree_param":{"num_deleted":"0","num_feature":"17","num_nodes":"63","size_leaf_vector":"1"}},{"base_weights":[-2.021475E-2,1.1479201E-2,-3.2030353E-1,-1.2541004E-1,5.1839925E-2,-2.633508E-1,-6.316411E-1,-1.5335885E-1,2.9136367E-2,-8.598565E-2,8.327757E-2,-1.8594499E-1,-3.7384588E-1,-2.0899317E-1,-7.0823437E-1,-3.7472278E-2,-1.8577343E-1,-1.9858366E-1,1.0398642E-1,-4.8110064E-2,-2.7239013E-1,-6.696963E-3,1.17006525E-1,-4.7153604E-1,-1.5333237E-1,-3.1613243E-1,-7.046396E-1,1.2918824E0,-3.5037825E-1,-5.26148E-1,-8.4581083E-1,1.1129805E-2,-1.1607694E-2,-2.4623437E-2,-1.1487353E-2,-7.521993E-3,-5.8169067E-2,-1.2524034E-2,2.467422E-2,-1.0223553E-2,1.0113834E-2,-1.2296332E-2,-5.9576996E-2,-1.3044794E-2,9.0470305E-3,1.5971366E-2,-1.14401315E-4,8.362961E-2,-5.4624137E-2,-2.6651883E-2,-4.981712E-3,-1.00422375E-1,-2.9520286E-2,-7.515894E-2,6.9051236E-2,2.302037E-1,8.7055285E-4,-4.3456323E-2,1.2962732E-1,-6.713967E-2,-1.6318364E-2,-8.859145E-2,-1.5021493E-2],"categories":[],"categories_nodes":[],"categories_segments":[],"categories_sizes":[],"default_left":[0,0,0,0,0,0,0,0,0,0,0,0,0,0,0,0,0,0,0,0,0,0,0,0,0,0,0,0,0,0,0,0,0,0,0,0,0,0,0,0,0,0,0,0,0,0,0,0,0,0,0,0,0,0,0,0,0,0,0,0,0,0,0],"id":11,"left_children":[1,3,5,7,9,11,13,15,17,19,21,23,25,27,29,31,33,35,37,39,41,43,45,47,49,51,53,55,57,59,61,-1,-1,-1,-1,-1,-1,-1,-1,-1,-1,-1,-1,-1,-1,-1,-1,-1,-1,-1,-1,-1,-1,-1,-1,-1,-1,-1,-1,-1,-1,-1,-1],"loss_changes":[1.6255008E2,8.541528E1,2.8782349E1,1.521014E1,5.17396E1,1.1749474E1,8.0017395E0,1.11922455E1,9.224404E0,1.5646568E1,2.9505783E1,7.5147E0,1.0626167E1,8.949717E0,4.88356E0,7.647908E0,9.957352E0,6.285628E0,1.3350981E1,1.4911837E1,1.8016312E1,3.1899088E1,3.5682266E1,8.566616E0,8.570082E0,6.6978264E0,5.995182E0,4.724955E0,5.7453017E0,4.8562756E0,3.201004E0,0E0,0E0,0E0,0E0,0E0,0E0,0E0,0E0,0E0,0E0,0E0,0E0,0E0,0E0,0E0,0E0,0E0,0E0,0E0,0E0,0E0,0E0,0E0,0E0,0E0,0E0,0E0,0E0,0E0,0E0,0E0,0E0],"parents":[2147483647,0,0,1,1,2,2,3,3,4,4,5,5,6,6,7,7,8,8,9,9,10,10,11,11,12,12,13,13,14,14,15,15,16,16,17,17,18,18,19,19,20,20,21,21,22,22,23,23,24,24,25,25,26,26,27,27,28,28,29,29,30,30],"right_children":[2,4,6,8,10,12,14,16,18,20,22,24,26,28,30,32,34,36,38,40,42,44,46,48,50,52,54,56,58,60,62,-1,-1,-1,-1,-1,-1,-1,-1,-1,-1,-1,-1,-1,-1,-1,-1,-1,-1,-1,-1,-1,-1,-1,-1,-1,-1,-1,-1,-1,-1,-1,-1],"split_conditions":[1.022235E2,4.1585613E1,1.4894957E2,1.3291016E0,2.4299532E1,1.2919589E2,-1.3205566E0,-1.8026948E0,-1.7726039E0,7.170404E1,2.3419601E1,3.3771328E1,2.085061E2,1.1289475E2,9.574139E1,-1.0039062E0,3.610376E1,7.466558E1,3.0011576E1,2.4056008E0,7.631332E1,7.1337105E1,7.727477E1,-3.0231571E0,6.2805035E1,4.116221E1,1.3453429E2,4.2925995E1,3.0419922E0,1.2126329E2,2.729004E0,1.1129805E-2,-1.1607694E-2,-2.4623437E-2,-1.1487353E-2,-7.521993E-3,-5.8169067E-2,-1.2524034E-2,2.467422E-2,-1.0223553E-2,1.0113834E-2,-1.2296332E-2,-5.9576996E-2,-1.3044794E-2,9.0470305E-3,1.5971366E-2,-1.14401315E-4,8.362961E-2,-5.4624137E-2,-2.6651883E-2,-4.981712E-3,-1.00422375E-1,-2.9520286E-2,-7.515894E-2,6.9051236E-2,2.302037E-1,8.7055285E-4,-4.3456323E-2,1.2962732E-1,-6.713967E-2,-1.6318364E-2,-8.859145E-2,-1.5021493E-2],"split_indices":[13,0,0,6,11,13,6,14,12,13,13,11,11,13,2,7,0,13,13,16,2,0,13,16,0,11,0,5,7,11,10,0,0,0,0,0,0,0,0,0,0,0,0,0,0,0,0,0,0,0,0,0,0,0,0,0,0,0,0,0,0,0,0],"split_type":[0,0,0,0,0,0,0,0,0,0,0,0,0,0,0,0,0,0,0,0,0,0,0,0,0,0,0,0,0,0,0,0,0,0,0,0,0,0,0,0,0,0,0,0,0,0,0,0,0,0,0,0,0,0,0,0,0,0,0,0,0,0,0],"sum_hessian":[1.708936E4,1.5457748E4,1.6316122E3,3.5193289E3,1.1938419E4,1.3808588E3,2.5075342E2,2.9803562E3,5.3897253E2,2.2170276E3,9.721392E3,8.1359125E2,5.672675E2,3.9042473E1,2.1171095E2,6.518957E2,2.3284607E3,1.3292255E2,4.0605E2,1.8436697E3,3.7335776E2,2.65085E3,7.0705415E3,8.200543E1,7.315858E2,4.8466406E2,8.260345E1,2.6606772E0,3.6381794E1,9.319245E1,1.185185E2,2.252198E2,4.266759E2,1.2554146E3,1.073046E3,1.0145085E2,3.14717E1,1.5587694E2,2.5017305E2,1.3532308E3,4.9043893E2,2.56305E2,1.1705275E2,1.1657823E3,1.4850679E3,5.1930796E3,1.8774619E3,3.8802931E0,7.812514E1,3.4871564E2,3.8287018E2,1.2919966E1,4.7174408E2,8.0360435E1,2.2430103E0,1.0444454E0,1.6162318E0,3.5312534E1,1.0692593E0,6.59509E1,2.7241554E1,1.11799255E2,6.7192445E0],"tree_param":{"num_deleted":"0","num_feature":"17","num_nodes":"63","size_leaf_vector":"1"}},{"base_weights":[-1.4364037E-2,1.4537999E-1,-3.0508915E-2,1.8336535E-1,-8.821875E-2,-4.578704E-2,1.6726442E-1,9.969215E-3,2.4067551E-1,5.4578092E-2,-3.1965995E-1,-2.7606994E-1,-3.3024378E-2,3.420676E-1,1.1890352E-1,3.2095322E-1,-5.6183342E-2,6.648544E-2,2.9754746E-1,-1.582312E-1,3.47586E-1,5.2217748E-2,-6.1559755E-1,-9.926493E-2,-3.6493292E-1,-1.0790338E-2,-1.7933533E-1,4.1042763E-1,-4.1832152E-1,1.37285E-1,-6.2139654E-1,-1.30620925E-2,7.519002E-2,-5.1149815E-2,-8.206088E-4,-3.978004E-3,5.3489942E-2,4.7162738E-2,2.362645E-2,-2.2271058E-2,7.736131E-2,5.291176E-2,-5.8789488E-2,-6.275671E-2,3.8976245E-2,-9.981484E-2,-3.5733413E-2,-3.4209963E-2,8.496418E-3,-1.3137898E-2,-4.9907368E-2,-1.0315645E-2,1.8506916E-3,-1.4671462E-2,-4.055008E-2,-5.684929E-2,4.4233397E-2,-1.113958E-1,-3.5595763E-3,4.9318625E-3,2.4756039E-2,-3.5042942E-3,-9.573852E-2],"categories":[],"categories_nodes":[],"categories_segments":[],"categories_sizes":[],"default_left":[0,0,0,0,0,0,0,0,0,0,0,0,0,0,0,0,0,0,0,0,0,0,0,0,0,0,0,0,0,0,0,0,0,0,0,0,0,0,0,0,0,0,0,0,0,0,0,0,0,0,0,0,0,0,0,0,0,0,0,0,0,0,0],"id":12,"left_children":[1,3,5,7,9,11,13,15,17,19,21,23,25,27,29,31,33,35,37,39,41,43,45,47,49,51,53,55,57,59,61,-1,-1,-1,-1,-1,-1,-1,-1,-1,-1,-1,-1,-1,-1,-1,-1,-1,-1,-1,-1,-1,-1,-1,-1,-1,-1,-1,-1,-1,-1,-1,-1],"loss_changes":[4.400631E1,1.3913868E1,4.6830627E1,1.3388142E1,7.279572E0,4.2270493E1,9.355135E0,6.925762E0,1.0012745E1,8.581844E0,9.275512E0,1.18301735E1,4.434192E1,1.2663837E1,1.1953041E1,1.1588972E1,6.062748E0,1.2492759E1,8.0301285E0,4.973157E0,1.0134369E1,8.996483E0,4.271946E0,1.13924885E1,1.5670044E1,3.2026077E1,1.3206661E1,7.1543274E0,5.3699403E0,8.250851E0,4.1648912E0,0E0,0E0,0E0,0E0,0E0,0E0,0E0,0E0,0E0,0E0,0E0,0E0,0E0,0E0,0E0,0E0,0E0,0E0,0E0,0E0,0E0,0E0,0E0,0E0,0E0,0E0,0E0,0E0,0E0,0E0,0E0,0E0],"parents":[2147483647,0,0,1,1,2,2,3,3,4,4,5,5,6,6,7,7,8,8,9,9,10,10,11,11,12,12,13,13,14,14,15,15,16,16,17,17,18,18,19,19,20,20,21,21,22,22,23,23,24,24,25,25,26,26,27,27,28,28,29,29,30,30],"right_children":[2,4,6,8,10,12,14,16,18,20,22,24,26,28,30,32,34,36,38,40,42,44,46,48,50,52,54,56,58,60,62,-1,-1,-1,-1,-1,-1,-1,-1,-1,-1,-1,-1,-1,-1,-1,-1,-1,-1,-1,-1,-1,-1,-1,-1,-1,-1,-1,-1,-1,-1,-1,-1],"split_conditions":[-1.6550293E0,2.6129873E0,1.831543E0,2.6168802E1,5.301745E-1,1.6523132E1,-1.7465656E0,8.7562454E1,-1.6405603E0,-4.1809082E-1,4.2047962E1,8.951434E1,8.20937E1,2.4643555E0,3.5462976E0,-3.896039E-1,8.85877E1,2.7200232E0,-1.6052246E0,1.1021447E2,1.1071733E2,2.0105143E1,1.203125E0,1.0524644E1,2.819105E1,4.3369957E1,2.085061E2,-2.9213867E0,2.8332495E1,2.1137695E0,-1.0788574E0,-1.30620925E-2,7.519002E-2,-5.1149815E-2,-8.206088E-4,-3.978004E-3,5.3489942E-2,4.7162738E-2,2.362645E-2,-2.2271058E-2,7.736131E-2,5.291176E-2,-5.8789488E-2,-6.275671E-2,3.8976245E-2,-9.981484E-2,-3.5733413E-2,-3.4209963E-2,8.496418E-3,-1.3137898E-2,-4.9907368E-2,-1.0315645E-2,1.8506916E-3,-1.4671462E-2,-4.055008E-2,-5.684929E-2,4.4233397E-2,-1.113958E-1,-3.5595763E-3,4.9318625E-3,2.4756039E-2,-3.5042942E-3,-9.573852E-2],"split_indices":[3,12,3,11,15,8,1,9,12,4,8,9,11,4,12,12,9,1,4,0,2,8,4,8,11,0,11,7,11,3,7,0,0,0,0,0,0,0,0,0,0,0,0,0,0,0,0,0,0,0,0,0,0,0,0,0,0,0,0,0,0,0,0],"split_type":[0,0,0,0,0,0,0,0,0,0,0,0,0,0,0,0,0,0,0,0,0,0,0,0,0,0,0,0,0,0,0,0,0,0,0,0,0,0,0,0,0,0,0,0,0,0,0,0,0,0,0,0,0,0,0,0,0,0,0,0,0,0,0],"sum_hessian":[1.7060287E4,1.5652323E3,1.5495054E4,1.3464948E3,2.1873766E2,1.4384603E4,1.1104518E3,3.3477682E2,1.0117179E3,1.3574721E2,8.2990456E1,7.542721E2,1.363033E4,2.3932497E2,8.711269E2,5.8046726E1,2.767301E2,2.4955089E2,7.62167E2,7.890159E1,5.6845615E1,3.714158E1,4.5848873E1,2.5300378E2,5.0126834E2,1.1833183E4,1.7971475E3,2.2000633E2,1.9318636E1,8.5081586E2,2.0310999E1,2.8685305E1,2.936142E1,2.5458834E1,2.5127126E2,2.0415166E2,4.539924E1,1.9670697E2,5.6546E2,7.450704E1,4.3945465E0,4.7971127E1,8.874486E0,1.2038303E1,2.5103277E1,1.7323587E1,2.8525284E1,1.0877248E2,1.4423131E2,1.8359262E2,3.1767572E2,2.848893E3,8.98429E3,1.572053E3,2.250945E2,6.4135714E0,2.1359276E2,6.1783576E0,1.3140278E1,4.74086E2,3.7672986E2,7.801114E0,1.2509885E1],"tree_param":{"num_deleted":"0","num_feature":"17","num_nodes":"63","size_leaf_vector":"1"}},{"base_weights":[-1.7511478E-2,1.5892161E-2,-2.7091604E-1,-3.997963E-2,7.264748E-2,-1.9042198E-1,-5.0627047E-1,-2.5977856E-1,-2.0230569E-2,8.961462E-2,-2.471589E-1,-1.1182664E-1,-3.1556442E-1,-1.9754837E-1,-5.9293896E-1,-5.5954105E-1,-1.0555324E-1,1.3840987E-2,-1.548182E-1,1.2311186E-1,-2.8421186E-2,-3.8723135E-1,-5.2262217E-2,-3.041667E-1,-4.9639396E-2,-2.8447005E-1,-7.848001E-1,-2.7072915E-1,1.204487E0,-5.019219E-1,-8.2248825E-1,-1.3008538E-2,-6.299558E-2,-2.9586842E-3,-4.2724308E-2,1.10057554E-4,3.824699E-2,-1.4230492E-2,-7.386846E-2,-8.067679E-3,1.571886E-2,2.907507E-3,-2.6368186E-2,-2.0745782E-2,-5.4219346E-2,-1.3873932E-2,8.928273E-2,-3.3104103E-2,3.4621168E-2,1.549832E-2,-1.0684223E-2,-3.2706447E-2,7.041484E-3,-3.4139503E-2,-9.522202E-2,-1.4670605E-2,-7.637478E-2,2.3327093E-3,1.6208698E-1,-5.143674E-2,8.389004E-2,-1.00139834E-1,-6.664636E-2],"categories":[],"categories_nodes":[],"categories_segments":[],"categories_sizes":[],"default_left":[0,0,0,0,0,0,0,0,0,0,0,0,0,0,0,0,0,0,0,0,0,0,0,0,0,0,0,0,0,0,0,0,0,0,0,0,0,0,0,0,0,0,0,0,0,0,0,0,0,0,0,0,0,0,0,0,0,0,0,0,0,0,0],"id":13,"left_children":[1,3,5,7,9,11,13,15,17,19,21,23,25,27,29,31,33,35,37,39,41,43,45,47,49,51,53,55,57,59,61,-1,-1,-1,-1,-1,-1,-1,-1,-1,-1,-1,-1,-1,-1,-1,-1,-1,-1,-1,-1,-1,-1,-1,-1,-1,-1,-1,-1,-1,-1,-1,-1],"loss_changes":[1.4393803E2,4.764642E1,3.7422913E1,3.286304E1,4.0467678E1,1.4495365E1,1.3371368E1,2.8796753E1,3.1866356E1,2.799279E1,1.0238884E1,1.0857382E1,8.084114E0,1.1817673E1,7.800583E0,6.323021E0,1.0088936E1,2.6045874E1,1.0151375E1,3.8306473E1,2.1185675E1,5.974392E0,1.3061606E1,3.9929504E0,8.070692E0,8.118446E0,2.2594929E0,6.44656E0,2.7849865E0,5.1718063E0,2.4046097E0,0E0,0E0,0E0,0E0,0E0,0E0,0E0,0E0,0E0,0E0,0E0,0E0,0E0,0E0,0E0,0E0,0E0,0E0,0E0,0E0,0E0,0E0,0E0,0E0,0E0,0E0,0E0,0E0,0E0,0E0,0E0,0E0],"parents":[2147483647,0,0,1,1,2,2,3,3,4,4,5,5,6,6,7,7,8,8,9,9,10,10,11,11,12,12,13,13,14,14,15,15,16,16,17,17,18,18,19,19,20,20,21,21,22,22,23,23,24,24,25,25,26,26,27,27,28,28,29,29,30,30],"right_children":[2,4,6,8,10,12,14,16,18,20,22,24,26,28,30,32,34,36,38,40,42,44,46,48,50,52,54,56,58,60,62,-1,-1,-1,-1,-1,-1,-1,-1,-1,-1,-1,-1,-1,-1,-1,-1,-1,-1,-1,-1,-1,-1,-1,-1,-1,-1,-1,-1,-1,-1,-1,-1],"split_conditions":[9.638274E1,5.9418602E1,1.08976555E2,1.7129618E1,3.119572E2,1.20938736E2,5.1955257E1,4.978991E1,8.8957054E1,7.085862E1,2.3313533E2,4.8338024E1,2.4671104E2,2.916504E0,2.000319E2,-2.2207031E0,8.078887E1,2.1137695E0,3.6579636E2,4.3854485E1,1.06793686E2,-1.4852905E-1,1.4245605E0,2.1039618E2,-1.6367373E0,9.498764E1,-1.4676452E0,2.3281403E0,3.0288961E1,4.4746304E2,-6.02793E-1,-1.3008538E-2,-6.299558E-2,-2.9586842E-3,-4.2724308E-2,1.10057554E-4,3.824699E-2,-1.4230492E-2,-7.386846E-2,-8.067679E-3,1.571886E-2,2.907507E-3,-2.6368186E-2,-2.0745782E-2,-5.4219346E-2,-1.3873932E-2,8.928273E-2,-3.3104103E-2,3.4621168E-2,1.549832E-2,-1.0684223E-2,-3.2706447E-2,7.041484E-3,-3.4139503E-2,-9.522202E-2,-1.4670605E-2,-7.637478E-2,2.3327093E-3,1.6208698E-1,-5.143674E-2,8.389004E-2,-1.00139834E-1,-6.664636E-2],"split_indices":[13,0,0,8,8,13,8,13,2,13,0,0,13,4,0,4,13,3,8,8,0,3,3,8,14,9,15,16,5,2,16,0,0,0,0,0,0,0,0,0,0,0,0,0,0,0,0,0,0,0,0,0,0,0,0,0,0,0,0,0,0,0,0],"split_type":[0,0,0,0,0,0,0,0,0,0,0,0,0,0,0,0,0,0,0,0,0,0,0,0,0,0,0,0,0,0,0,0,0,0,0,0,0,0,0,0,0,0,0,0,0,0,0,0,0,0,0,0,0,0,0,0,0,0,0,0,0,0,0],"sum_hessian":[1.7003129E4,1.5023657E4,1.9794723E3,7.5709062E3,7.452751E3,1.4763513E3,5.031209E2,6.231663E2,6.94774E3,7.077954E3,3.747968E2,9.079866E2,5.6836475E2,1.11001495E2,3.9211942E2,2.108046E2,4.1236172E2,5.5449136E3,1.4028264E3,5.513299E3,1.5646554E3,2.1749564E2,1.5730118E2,2.2089262E2,6.8709393E2,5.345486E2,3.381616E1,1.0626194E2,4.7395563E0,2.8306842E2,1.0905101E2,3.009632E1,1.8070827E2,3.3446942E2,7.7892296E1,5.360644E3,1.8426955E2,1.3746097E3,2.8216616E1,7.896428E2,4.7236562E3,1.2580677E3,3.065876E2,1.01769875E2,1.1572575E2,1.4489616E2,1.2405017E1,2.1259883E2,8.293796E0,1.4974075E2,5.373532E2,4.7733563E2,5.721294E1,1.0101614E1,2.3714544E1,8.5940445E1,2.0321497E1,1.5105569E0,3.2289991E0,2.8107584E2,1.9925641E0,4.8275898E1,6.0775112E1],"tree_param":{"num_deleted":"0","num_feature":"17","num_nodes":"63","size_leaf_vector":"1"}},{"base_weights":[-2.0363078E-2,2.6085142E-3,-3.1578454E-1,-1.0670628E-1,2.7096197E-2,-2.4409966E-1,-5.8093673E-1,-9.039821E-2,-5.100591E-1,-8.443861E-2,4.6209227E-2,-2.6630366E-1,1.1354494E-1,-5.969212E-1,2.8679258E-1,-1.3900852E-1,4.4223577E-2,-3.6879772E-1,-8.538596E-1,-9.722464E-2,6.7156875E-1,8.7238476E-2,-1.9669125E-2,-4.4696367E-1,-2.2414494E-1,-2.2673513E-1,4.6444514E-1,-6.248623E-1,-5.33383E-2,-3.9653832E-1,1.2208227E-1,3.0267348E-3,-2.5569791E-2,-5.594954E-2,7.512487E-3,-4.5997746E-2,5.4828417E-2,-9.371431E-2,8.5562564E-2,8.1616014E-2,-1.0599437E-2,-7.306399E-2,8.823055E-2,9.376359E-3,-3.5842206E-2,8.3078584E-4,-2.4676701E-2,1.0337306E-2,-5.3159155E-2,-1.6483672E-2,-4.1125312E-2,-3.2603994E-2,1.2339711E-1,-3.2821212E-2,6.7210615E-2,-4.037846E-2,-6.9006674E-2,-6.948586E-2,6.773693E-2,-7.9711325E-2,3.6571383E-2],"categories":[],"categories_nodes":[],"categories_segments":[],"categories_sizes":[],"default_left":[0,0,0,0,0,0,0,0,0,0,0,0,0,0,0,0,0,0,0,0,0,0,0,0,0,0,0,0,0,0,0,0,0,0,0,0,0,0,0,0,0,0,0,0,0,0,0,0,0,0,0,0,0,0,0,0,0,0,0,0,0],"id":14,"left_children":[1,3,5,7,9,11,13,15,17,19,21,23,25,27,29,31,33,35,37,39,41,43,45,47,49,51,53,55,57,59,-1,-1,-1,-1,-1,-1,-1,-1,-1,-1,-1,-1,-1,-1,-1,-1,-1,-1,-1,-1,-1,-1,-1,-1,-1,-1,-1,-1,-1,-1,-1],"loss_changes":[1.15570404E2,4.230312E1,2.321231E1,1.8978588E1,2.7527023E1,7.724594E0,3.7879944E0,1.8205261E1,5.1330185E0,1.8326443E1,2.9795633E1,6.8504257E0,6.9518795E0,3.8604813E0,3.9256105E0,4.0372097E1,1.3820189E1,7.0477867E0,5.344652E0,1.4974186E1,9.966237E0,1.978646E1,2.6884823E1,8.04985E0,8.165382E0,4.722382E0,4.921227E0,3.2349777E0,6.858468E0,1.472801E0,0E0,0E0,0E0,0E0,0E0,0E0,0E0,0E0,0E0,0E0,0E0,0E0,0E0,0E0,0E0,0E0,0E0,0E0,0E0,0E0,0E0,0E0,0E0,0E0,0E0,0E0,0E0,0E0,0E0,0E0,0E0],"parents":[2147483647,0,0,1,1,2,2,3,3,4,4,5,5,6,6,7,7,8,8,9,9,10,10,11,11,12,12,13,13,14,14,15,15,16,16,17,17,18,18,19,19,20,20,21,21,22,22,23,23,24,24,25,25,26,26,27,27,28,28,29,29],"right_children":[2,4,6,8,10,12,14,16,18,20,22,24,26,28,30,32,34,36,38,40,42,44,46,48,50,52,54,56,58,60,-1,-1,-1,-1,-1,-1,-1,-1,-1,-1,-1,-1,-1,-1,-1,-1,-1,-1,-1,-1,-1,-1,-1,-1,-1,-1,-1,-1,-1,-1,-1],"split_conditions":[1.0972391E2,2.4424507E1,1.13820724E2,8.571931E1,1.3152765E1,9.724397E1,2.1699219E0,2.3281403E0,2.4056008E0,2.2089844E0,6.534702E1,-1.9574788E0,7.451583E1,9.678258E1,1.6499289E2,-2.11091E0,-2.8232422E0,2.5009766E0,2.822754E0,-3.1335273E0,-2.6291704E0,1.3961087E2,2.6229992E0,4.648809E1,1.8554827E0,3.8560355E0,-1.8884896E0,8.882301E1,4.6583942E-1,2.2353516E0,1.2208227E-1,3.0267348E-3,-2.5569791E-2,-5.594954E-2,7.512487E-3,-4.5997746E-2,5.4828417E-2,-9.371431E-2,8.5562564E-2,8.1616014E-2,-1.0599437E-2,-7.306399E-2,8.823055E-2,9.376359E-3,-3.5842206E-2,8.3078584E-4,-2.4676701E-2,1.0337306E-2,-5.3159155E-2,-1.6483672E-2,-4.1125312E-2,-3.2603994E-2,1.2339711E-1,-3.2821212E-2,6.7210615E-2,-4.037846E-2,-6.9006674E-2,-6.948586E-2,6.773693E-2,-7.9711325E-2,3.6571383E-2],"split_indices":[13,11,2,13,13,9,6,16,16,6,13,16,11,9,2,16,10,7,4,16,15,5,16,2,16,12,15,9,1,7,0,0,0,0,0,0,0,0,0,0,0,0,0,0,0,0,0,0,0,0,0,0,0,0,0,0,0,0,0,0,0],"split_type":[0,0,0,0,0,0,0,0,0,0,0,0,0,0,0,0,0,0,0,0,0,0,0,0,0,0,0,0,0,0,0,0,0,0,0,0,0,0,0,0,0,0,0,0,0,0,0,0,0,0,0,0,0,0,0,0,0,0,0,0,0],"sum_hessian":[1.7028832E4,1.5801147E4,1.2276857E3,2.8912117E3,1.2909936E4,9.679243E2,2.5976135E2,2.7800354E3,1.1117625E2,1.8881497E3,1.1021786E4,9.115849E2,5.63394E1,2.5536926E2,4.3920856E0,2.0424857E3,7.375496E2,8.02682E1,3.0908043E1,1.8576042E3,3.0545473E1,6.7916196E3,4.2301665E3,1.7066084E2,7.409241E2,2.8782177E1,2.7557226E1,2.4274237E2,1.2626891E1,2.868767E0,1.5233185E0,8.3374756E2,1.2087382E3,3.5080254E1,7.0246936E2,7.34627E1,6.8055034E0,2.9903013E1,1.005031E0,1.679035E1,1.8408138E3,3.6685371E0,2.6876936E1,6.6943936E3,9.722602E1,3.7670532E3,4.6311307E2,2.2716091E1,1.4794475E2,5.6402454E2,1.7689954E2,2.767735E1,1.1048272E0,5.6002274E0,2.1956999E1,5.692589E1,1.8581647E2,6.74991E0,5.8769813E0,1.8505442E0,1.0182229E0],"tree_param":{"num_deleted":"0","num_feature":"17","num_nodes":"61","size_leaf_vector":"1"}},{"base_weights":[-8.488231E-3,9.192888E-3,-3.3599642E-1,2.0379514E-1,-3.4047042E-3,-2.5060517E-1,-5.19237E-1,1.011868E-2,2.6043564E-1,-2.01508E-2,1.5498875E-1,-4.9981564E-1,-1.8273194E-1,-5.393736E-1,4.8584217E-1,-3.2223123E-1,9.574961E-2,-2.0450996E-1,2.9378146E-1,-1.6006956E-1,-1.5054867E-3,-6.1799586E-2,2.0747364E-1,-3.1612083E-1,-7.6012194E-1,1.9871497E-1,-2.1962298E-1,-5.9262955E-1,-1.6253868E-1,9.2182654E-1,-3.894673E-2,2.4537941E-2,-5.0951477E-2,-1.7870585E-2,2.1081658E-2,1.1989928E-2,-7.521472E-2,3.0737862E-2,-8.850231E-2,-2.9051308E-2,-1.0468687E-2,1.54346E-3,-1.342946E-2,-7.342487E-2,-2.6410972E-3,1.1346042E-3,2.5898164E-2,3.6777195E-2,-3.8935166E-2,-9.4188325E-2,-4.6410695E-2,-7.6349713E-3,7.63994E-2,-7.745297E-2,-1.8480381E-2,-6.2401462E-2,-1.6451201E-3,1.02256425E-2,-7.8269094E-2,1.5549968E-1,-2.6239127E-2],"categories":[],"categories_nodes":[],"categories_segments":[],"categories_sizes":[],"default_left":[0,0,0,0,0,0,0,0,0,0,0,0,0,0,0,0,0,0,0,0,0,0,0,0,0,0,0,0,0,0,0,0,0,0,0,0,0,0,0,0,0,0,0,0,0,0,0,0,0,0,0,0,0,0,0,0,0,0,0,0,0],"id":15,"left_children":[1,3,5,7,9,11,13,15,17,19,21,23,25,27,29,31,33,35,37,39,41,43,45,47,49,51,53,55,57,59,-1,-1,-1,-1,-1,-1,-1,-1,-1,-1,-1,-1,-1,-1,-1,-1,-1,-1,-1,-1,-1,-1,-1,-1,-1,-1,-1,-1,-1,-1,-1],"loss_changes":[9.848746E1,3.95612E1,1.3501137E1,1.0760422E1,4.0206623E1,9.992844E0,5.847748E0,6.378684E0,1.1829063E1,3.5763233E1,1.6503826E1,5.8342857E0,6.6594286E0,5.3431396E0,2.62848E0,5.0069947E0,5.6629586E0,9.219769E0,1.1631424E1,1.1614944E1,2.7215265E1,6.7216E0,1.1787182E1,3.959003E0,2.3524456E0,6.5863705E0,8.148741E0,4.2773514E0,5.8175955E0,3.607202E0,0E0,0E0,0E0,0E0,0E0,0E0,0E0,0E0,0E0,0E0,0E0,0E0,0E0,0E0,0E0,0E0,0E0,0E0,0E0,0E0,0E0,0E0,0E0,0E0,0E0,0E0,0E0,0E0,0E0,0E0,0E0],"parents":[2147483647,0,0,1,1,2,2,3,3,4,4,5,5,6,6,7,7,8,8,9,9,10,10,11,11,12,12,13,13,14,14,15,15,16,16,17,17,18,18,19,19,20,20,21,21,22,22,23,23,24,24,25,25,26,26,27,27,28,28,29,29],"right_children":[2,4,6,8,10,12,14,16,18,20,22,24,26,28,30,32,34,36,38,40,42,44,46,48,50,52,54,56,58,60,-1,-1,-1,-1,-1,-1,-1,-1,-1,-1,-1,-1,-1,-1,-1,-1,-1,-1,-1,-1,-1,-1,-1,-1,-1,-1,-1,-1,-1,-1,-1],"split_conditions":[1.20938736E2,-1.8605957E0,1.18885956E2,-1.386894E0,1.6679688E0,5.4832436E1,2.2089844E0,4.478075E1,1.897802E1,3.610376E1,2.4781193E1,1.3592046E2,6.0716206E1,2.2329102E0,2.3320312E0,8.707824E1,2.5145786E1,9.1807625E1,2.085061E2,3.0865026E1,8.877804E1,2.0181404E1,3.404243E1,1.7129618E1,1.7507935E-1,9.3966043E-1,-3.8165307E0,9.6405235E1,1.8477011E2,8.167621E1,-3.894673E-2,2.4537941E-2,-5.0951477E-2,-1.7870585E-2,2.1081658E-2,1.1989928E-2,-7.521472E-2,3.0737862E-2,-8.850231E-2,-2.9051308E-2,-1.0468687E-2,1.54346E-3,-1.342946E-2,-7.342487E-2,-2.6410972E-3,1.1346042E-3,2.5898164E-2,3.6777195E-2,-3.8935166E-2,-9.4188325E-2,-4.6410695E-2,-7.6349713E-3,7.63994E-2,-7.745297E-2,-1.8480381E-2,-6.2401462E-2,-1.6451201E-3,1.02256425E-2,-7.8269094E-2,1.5549968E-1,-2.6239127E-2],"split_indices":[13,3,8,12,3,11,6,2,8,0,11,13,11,10,6,9,11,9,11,13,13,11,8,8,3,1,12,9,2,0,0,0,0,0,0,0,0,0,0,0,0,0,0,0,0,0,0,0,0,0,0,0,0,0,0,0,0,0,0,0,0],"split_type":[0,0,0,0,0,0,0,0,0,0,0,0,0,0,0,0,0,0,0,0,0,0,0,0,0,0,0,0,0,0,0,0,0,0,0,0,0,0,0,0,0,0,0,0,0,0,0,0,0,0,0,0,0,0,0,0,0,0,0,0,0],"sum_hessian":[1.70063E4,1.6136135E4,8.701663E2,9.8014185E2,1.5155992E4,5.951774E2,2.7498886E2,2.220484E2,7.5809344E2,1.3707631E4,1.4483619E3,1.26038216E2,4.6913925E2,2.7004196E2,4.9468875E0,4.4924576E1,1.7712383E2,5.038838E1,7.077051E2,1.610968E3,1.2096662E4,2.822702E2,1.1660918E3,7.5191185E1,5.0847034E1,4.0984123E1,4.2815512E2,2.361023E2,3.3939686E1,3.2666519E0,1.6802357E0,1.1068487E1,3.3856087E1,5.215993E1,1.249639E2,3.213394E1,1.8254436E1,7.0036584E2,7.3392534E0,4.7885934E2,1.1321088E3,1.0728853E4,1.3678104E3,1.3124889E1,2.691453E2,2.4279994E2,9.232919E2,6.883646E0,6.830753E1,3.0151384E1,2.0695652E1,2.8150854E1,1.2833267E1,2.4025229E1,4.0412988E2,2.2382715E2,1.2275133E1,2.4369436E1,9.570249E0,1.9245467E0,1.342105E0],"tree_param":{"num_deleted":"0","num_feature":"17","num_nodes":"61","size_leaf_vector":"1"}},{"base_weights":[-1.65345E-2,1.09988665E-2,-1.9770096E-1,-4.549555E-2,6.830921E-2,-1.3851151E-1,-5.0004125E-1,-2.710676E-1,-2.6602656E-2,-1.620203E-2,1.04689114E-1,-1.19321756E-1,-5.7394844E-1,-5.9585965E-1,-1.5263039E-1,-6.216552E-1,-1.5754089E-1,7.2531872E-3,-1.6060378E-1,1.3876837E-2,-2.4241163E-1,1.2146922E-1,-1.2695955E-1,-1.471362E-1,1.4205126E-1,8.7443456E-2,-6.944267E-1,-2.8477153E-1,-6.6430753E-1,1.6590476E-3,-8.8344216E-1,-7.596223E-2,-1.5274748E-2,1.4490797E-2,-3.4536347E-2,3.2833496E-3,-1.7474823E-2,-3.8908023E-2,-8.108125E-3,5.4822573E-3,-9.476677E-3,-6.0592643E-3,-5.416274E-2,1.3664416E-2,-1.5425667E-2,-1.8883338E-2,4.360024E-2,-2.797184E-3,-1.912352E-2,1.4848869E-1,6.3061486E-3,-6.0091037E-2,9.473565E-2,-4.462584E-2,-9.104211E-2,-6.8740055E-2,-2.508439E-3,-6.807547E-2,7.9183206E-2,-1.7263979E-2,5.960203E-2,-1.0525833E-2,-1.0738065E-1],"categories":[],"categories_nodes":[],"categories_segments":[],"categories_sizes":[],"default_left":[0,0,0,0,0,0,0,0,0,0,0,0,0,0,0,0,0,0,0,0,0,0,0,0,0,0,0,0,0,0,0,0,0,0,0,0,0,0,0,0,0,0,0,0,0,0,0,0,0,0,0,0,0,0,0,0,0,0,0,0,0,0,0],"id":16,"left_children":[1,3,5,7,9,11,13,15,17,19,21,23,25,27,29,31,33,35,37,39,41,43,45,47,49,51,53,55,57,59,61,-1,-1,-1,-1,-1,-1,-1,-1,-1,-1,-1,-1,-1,-1,-1,-1,-1,-1,-1,-1,-1,-1,-1,-1,-1,-1,-1,-1,-1,-1,-1,-1],"loss_changes":[8.441399E1,4.7568207E1,3.9884155E1,3.1524055E1,2.2424751E1,1.55443535E1,1.2063934E1,2.2655743E1,3.0978138E1,1.4942645E1,1.9834103E1,1.3040413E1,6.3242855E0,5.8976974E0,9.05368E0,8.908764E0,2.4657871E1,2.5387552E1,2.499128E1,8.63029E0,1.3989005E1,1.991539E1,1.209516E1,8.503132E0,1.8230736E1,8.264591E0,3.1639557E0,5.5560694E0,6.132538E0,7.0733566E0,1.9603691E0,0E0,0E0,0E0,0E0,0E0,0E0,0E0,0E0,0E0,0E0,0E0,0E0,0E0,0E0,0E0,0E0,0E0,0E0,0E0,0E0,0E0,0E0,0E0,0E0,0E0,0E0,0E0,0E0,0E0,0E0,0E0,0E0],"parents":[2147483647,0,0,1,1,2,2,3,3,4,4,5,5,6,6,7,7,8,8,9,9,10,10,11,11,12,12,13,13,14,14,15,15,16,16,17,17,18,18,19,19,20,20,21,21,22,22,23,23,24,24,25,25,26,26,27,27,28,28,29,29,30,30],"right_children":[2,4,6,8,10,12,14,16,18,20,22,24,26,28,30,32,34,36,38,40,42,44,46,48,50,52,54,56,58,60,62,-1,-1,-1,-1,-1,-1,-1,-1,-1,-1,-1,-1,-1,-1,-1,-1,-1,-1,-1,-1,-1,-1,-1,-1,-1,-1,-1,-1,-1,-1,-1,-1],"split_conditions":[9.226522E1,5.9418602E1,1.2475745E2,1.6523132E1,2.772321E1,2.085061E2,1.25820175E2,3.844155E1,8.8957054E1,1.2837753E2,2.3313533E2,1.6679688E0,1.23484955E2,5.2399582E1,8.611644E1,1.1850586E0,2.8332495E1,5.710601E1,3.0674616E1,7.0434555E1,4.6317154E1,2.8767538E2,1.5061939E0,-9.448242E-1,-2.8199933E0,5.5732784E1,-8.34198E-2,3.0779667E1,2.4744682E0,1.8017578E0,-2.0488553E0,-7.596223E-2,-1.5274748E-2,1.4490797E-2,-3.4536347E-2,3.2833496E-3,-1.7474823E-2,-3.8908023E-2,-8.108125E-3,5.4822573E-3,-9.476677E-3,-6.0592643E-3,-5.416274E-2,1.3664416E-2,-1.5425667E-2,-1.8883338E-2,4.360024E-2,-2.797184E-3,-1.912352E-2,1.4848869E-1,6.3061486E-3,-6.0091037E-2,9.473565E-2,-4.462584E-2,-9.104211E-2,-6.8740055E-2,-2.508439E-3,-6.807547E-2,7.9183206E-2,-1.7263979E-2,5.960203E-2,-1.0525833E-2,-1.0738065E-1],"split_indices":[13,0,0,8,11,11,11,13,2,2,0,3,13,8,5,6,11,11,11,13,13,8,14,3,1,0,3,8,14,4,1,0,0,0,0,0,0,0,0,0,0,0,0,0,0,0,0,0,0,0,0,0,0,0,0,0,0,0,0,0,0,0,0],"split_type":[0,0,0,0,0,0,0,0,0,0,0,0,0,0,0,0,0,0,0,0,0,0,0,0,0,0,0,0,0,0,0,0,0,0,0,0,0,0,0,0,0,0,0,0,0,0,0,0,0,0,0,0,0,0,0,0,0,0,0,0,0,0,0],"sum_hessian":[1.6921562E4,1.4689948E4,2.2316138E3,7.397738E3,7.2922104E3,1.8674745E3,3.641392E2,5.706852E2,6.8270527E3,2.1946199E3,5.097591E3,1.7898688E3,7.760569E1,2.8485812E2,7.928106E1,1.3850009E2,4.321851E2,5.450828E3,1.3762245E3,1.9378805E3,2.567394E2,4.753718E3,3.4387296E2,1.6181118E3,1.7175694E2,1.2000502E1,6.5605194E1,5.2303764E1,2.3255437E2,6.628472E1,1.2996342E1,1.0653442E2,3.1965681E1,1.6565729E2,2.665278E2,4.779841E3,6.709873E2,3.543236E2,1.02190094E3,1.4078018E3,5.300787E2,1.604464E2,9.629302E1,4.506217E3,2.4750099E2,3.1041998E2,3.345297E1,4.3750903E2,1.1806028E3,8.553192E0,1.6320375E2,6.832408E0,5.1680937E0,3.1955618E1,3.3649574E1,1.9861967E1,3.2441795E1,2.3048354E2,2.0708363E0,5.180286E1,1.4481861E1,2.859603E0,1.0136739E1],"tree_param":{"num_deleted":"0","num_feature":"17","num_nodes":"63","size_leaf_vector":"1"}},{"base_weights":[-1.4991403E-2,8.7233195E-3,-1.681807E-1,-1.1722778E-1,2.7964013E-2,-6.0223553E-2,-3.0309856E-1,-2.4974073E-1,-2.0936403E-2,-1.5232268E-1,4.3227207E-2,-1.459382E-2,-3.2432982E-1,-2.5354794E-1,-6.938327E-1,-3.0023924E-1,1.7878008E-1,1.6012627E-1,-2.2260137E-1,2.6848033E-1,-1.8301505E-1,-3.235151E-2,7.491459E-2,-8.857826E-2,1.2068206E-1,-4.1095853E-1,1.2538241E-1,-4.3806428E-1,-1.874222E-1,-8.255356E-1,-3.9990228E-1,-4.5927644E-2,-2.2711072E-2,6.354376E-3,9.4820805E-2,5.3578797E-3,3.6857482E-2,-2.6417017E-2,1.2089315E-2,6.202217E-2,-2.734437E-2,-5.2977884E-3,-2.7789904E-2,-2.2988616E-2,3.157805E-4,1.8067632E-2,4.2982413E-3,-1.4373823E-2,9.365304E-3,1.0423235E-2,1.326607E-1,5.1022667E-2,-4.751731E-2,-2.5976693E-2,1.1293793E-1,-2.5546357E-2,-5.887275E-2,-2.4277631E-2,9.019442E-3,6.1244196E-3,-8.553365E-2,-7.972258E-2,5.3351345E-3],"categories":[],"categories_nodes":[],"categories_segments":[],"categories_sizes":[],"default_left":[0,0,0,0,0,0,0,0,0,0,0,0,0,0,0,0,0,0,0,0,0,0,0,0,0,0,0,0,0,0,0,0,0,0,0,0,0,0,0,0,0,0,0,0,0,0,0,0,0,0,0,0,0,0,0,0,0,0,0,0,0,0,0],"id":17,"left_children":[1,3,5,7,9,11,13,15,17,19,21,23,25,27,29,31,33,35,37,39,41,43,45,47,49,51,53,55,57,59,61,-1,-1,-1,-1,-1,-1,-1,-1,-1,-1,-1,-1,-1,-1,-1,-1,-1,-1,-1,-1,-1,-1,-1,-1,-1,-1,-1,-1,-1,-1,-1,-1],"loss_changes":[6.1397785E1,3.5471344E1,3.2981186E1,2.4745174E1,3.494566E1,1.517728E1,1.931704E1,1.7716557E1,4.1094975E1,1.2851685E1,2.803888E1,1.0772211E1,7.279976E0,1.0838982E1,4.0339165E0,8.392143E0,7.624782E0,1.3152541E1,7.633806E0,1.3091628E1,1.1391777E1,2.426316E1,2.7850063E1,7.0062995E0,7.4114017E0,9.459135E0,1.2178269E1,6.325634E0,1.0174723E1,2.0848846E0,6.6737814E0,0E0,0E0,0E0,0E0,0E0,0E0,0E0,0E0,0E0,0E0,0E0,0E0,0E0,0E0,0E0,0E0,0E0,0E0,0E0,0E0,0E0,0E0,0E0,0E0,0E0,0E0,0E0,0E0,0E0,0E0,0E0,0E0],"parents":[2147483647,0,0,1,1,2,2,3,3,4,4,5,5,6,6,7,7,8,8,9,9,10,10,11,11,12,12,13,13,14,14,15,15,16,16,17,17,18,18,19,19,20,20,21,21,22,22,23,23,24,24,25,25,26,26,27,27,28,28,29,29,30,30],"right_children":[2,4,6,8,10,12,14,16,18,20,22,24,26,28,30,32,34,36,38,40,42,44,46,48,50,52,54,56,58,60,62,-1,-1,-1,-1,-1,-1,-1,-1,-1,-1,-1,-1,-1,-1,-1,-1,-1,-1,-1,-1,-1,-1,-1,-1,-1,-1,-1,-1,-1,-1,-1,-1],"split_conditions":[9.153246E1,2.780179E1,7.198551E1,5.297977E1,2.1704239E1,2.2222583E0,1.8251497E2,9.575545E1,3.1660248E1,-3.003093E0,2.3835985E1,3.2760352E-1,2.1738281E0,4.8293682E1,1.06055756E2,4.3760044E1,2.3574219E0,1.3396888E0,5.4539345E1,4.551697E1,6.01918E1,5.103445E1,5.8402767E1,1.653814E0,1.0940745E2,-3.6647944E0,2.842874E0,-2.28302E-1,1.4652374E0,2.069682E1,4.039917E-1,-4.5927644E-2,-2.2711072E-2,6.354376E-3,9.4820805E-2,5.3578797E-3,3.6857482E-2,-2.6417017E-2,1.2089315E-2,6.202217E-2,-2.734437E-2,-5.2977884E-3,-2.7789904E-2,-2.2988616E-2,3.157805E-4,1.8067632E-2,4.2982413E-3,-1.4373823E-2,9.365304E-3,1.0423235E-2,1.326607E-1,5.1022667E-2,-4.751731E-2,-2.5976693E-2,1.1293793E-1,-2.5546357E-2,-5.887275E-2,-2.4277631E-2,9.019442E-3,6.1244196E-3,-8.553365E-2,-7.972258E-2,5.3351345E-3],"split_indices":[13,8,2,13,11,16,0,0,11,16,13,16,4,11,11,2,7,16,2,13,8,8,2,15,8,12,16,3,14,11,7,0,0,0,0,0,0,0,0,0,0,0,0,0,0,0,0,0,0,0,0,0,0,0,0,0,0,0,0,0,0,0,0],"split_type":[0,0,0,0,0,0,0,0,0,0,0,0,0,0,0,0,0,0,0,0,0,0,0,0,0,0,0,0,0,0,0,0,0,0,0,0,0,0,0,0,0,0,0,0,0,0,0,0,0,0,0,0,0,0,0,0,0,0,0,0,0,0,0],"sum_hessian":[1.6899357E4,1.4634744E4,2.2646128E3,1.9387091E3,1.2696035E4,1.2588033E3,1.00580945E3,8.1522723E2,1.1234819E3,9.9025885E2,1.1705776E4,1.0742585E3,1.8454475E2,8.940767E2,1.117327E2,7.295533E2,8.5673935E1,5.920881E2,5.313938E2,6.679053E1,9.234683E2,3.4579868E3,8.24779E3,6.946753E2,3.7958328E2,1.5480972E2,2.9735043E1,2.3439618E2,6.5968054E2,7.591049E1,3.5822205E1,2.2813446E2,5.0141882E2,7.545562E1,1.0218314E1,3.92646E2,1.994421E2,4.7423416E2,5.715964E1,4.041456E1,2.6375965E1,3.9022656E2,5.3324176E2,5.260654E2,2.9319214E3,1.9116399E3,6.33615E3,5.3342346E2,1.612518E2,3.7554697E2,4.036307E0,9.63571E0,1.4517401E2,2.2026566E1,7.7084775E0,1.0718534E2,1.27210846E2,5.501178E2,1.0956274E2,2.4337788E0,7.347671E1,1.8684458E1,1.7137749E1],"tree_param":{"num_deleted":"0","num_feature":"17","num_nodes":"63","size_leaf_vector":"1"}},{"base_weights":[-2.6857024E-3,9.82866E-3,-2.4697872E-1,1.0141811E-1,-1.0162905E-2,-1.6866381E-1,-5.0730914E-1,9.7436674E-2,1.5420465E0,-2.4159025E-2,1.4765203E-1,-2.0026933E-1,2.1517162E-1,-5.5060744E-1,6.0493037E-2,2.6761004E-1,6.490502E-2,-2.3937508E-2,1.848777E0,-2.043501E-2,-5.0283396E-1,3.601649E-1,1.1738973E-1,-7.611717E-2,-2.8096157E-1,1.704593E0,9.97571E-2,5.1581013E-1,-5.8069634E-1,7.4283874E-1,-6.572348E-1,-3.693695E-2,3.0152394E-2,-6.0753003E-3,1.0334882E-2,2.0894659E-1,2.5742963E-2,-1.2641042E-2,-4.1521457E-4,6.7517996E-2,-5.4441374E-2,2.4447314E-2,1.2834348E-1,5.119003E-3,2.5043149E-2,3.686586E-2,-1.3555122E-2,-2.976253E-2,5.583174E-2,2.7018784E-2,2.2832505E-1,1.003503E-1,-1.2938293E-2,-4.3656323E-2,1.1785344E-1,-2.7468596E-2,-6.550207E-2,-6.239007E-2,1.0635617E-1,3.496853E-2,-8.765533E-2],"categories":[],"categories_nodes":[],"categories_segments":[],"categories_sizes":[],"default_left":[0,0,0,0,0,0,0,0,0,0,0,0,0,0,0,0,0,0,0,0,0,0,0,0,0,0,0,0,0,0,0,0,0,0,0,0,0,0,0,0,0,0,0,0,0,0,0,0,0,0,0,0,0,0,0,0,0,0,0,0,0],"id":18,"left_children":[1,3,5,7,9,11,13,15,17,19,21,23,25,27,29,31,33,-1,35,37,39,41,43,45,47,49,51,53,55,57,59,-1,-1,-1,-1,-1,-1,-1,-1,-1,-1,-1,-1,-1,-1,-1,-1,-1,-1,-1,-1,-1,-1,-1,-1,-1,-1,-1,-1,-1,-1],"loss_changes":[5.1753258E1,2.9487265E1,1.6732979E1,1.6399384E1,2.9202559E1,7.7544613E0,4.7112045E0,1.5917833E1,4.7508926E0,2.1636448E1,6.884199E0,5.8674335E0,8.225772E0,5.975544E0,7.5319304E0,1.0083851E1,1.1686216E1,0E0,2.082409E0,2.0793932E1,4.957241E0,1.39747505E1,8.303539E0,6.2072845E0,5.1435146E0,2.2469664E0,9.736628E0,3.9124527E0,3.7436295E0,4.1012583E0,1.9716513E0,0E0,0E0,0E0,0E0,0E0,0E0,0E0,0E0,0E0,0E0,0E0,0E0,0E0,0E0,0E0,0E0,0E0,0E0,0E0,0E0,0E0,0E0,0E0,0E0,0E0,0E0,0E0,0E0,0E0,0E0],"parents":[2147483647,0,0,1,1,2,2,3,3,4,4,5,5,6,6,7,7,8,8,9,9,10,10,11,11,12,12,13,13,14,14,15,15,16,16,18,18,19,19,20,20,21,21,22,22,23,23,24,24,25,25,26,26,27,27,28,28,29,29,30,30],"right_children":[2,4,6,8,10,12,14,16,18,20,22,24,26,28,30,32,34,-1,36,38,40,42,44,46,48,50,52,54,56,58,60,-1,-1,-1,-1,-1,-1,-1,-1,-1,-1,-1,-1,-1,-1,-1,-1,-1,-1,-1,-1,-1,-1,-1,-1,-1,-1,-1,-1,-1,-1],"split_conditions":[1.20938736E2,-1.1933594E0,1.13820724E2,-4.1550037E-1,1.831543E0,2.645996E0,1.7481672E0,-2.138452E0,-2.5073242E0,4.825454E2,-2.797519E0,5.2399582E1,2.207742E1,2.0751984E1,2.0071986E0,-2.4555664E0,3.759344E1,-2.3937508E-2,9.334237E-2,2.780179E1,-3.1249099E0,7.183744E1,2.1313565E0,-2.4043465E0,2.190918E0,4.841909E1,2.7451172E0,1.4555376E2,-1.1743289E0,-2.2360663E0,1.2383444E2,-3.693695E-2,3.0152394E-2,-6.0753003E-3,1.0334882E-2,2.0894659E-1,2.5742963E-2,-1.2641042E-2,-4.1521457E-4,6.7517996E-2,-5.4441374E-2,2.4447314E-2,1.2834348E-1,5.119003E-3,2.5043149E-2,3.686586E-2,-1.3555122E-2,-2.976253E-2,5.583174E-2,2.7018784E-2,2.2832505E-1,1.003503E-1,-1.2938293E-2,-4.3656323E-2,1.1785344E-1,-2.7468596E-2,-6.550207E-2,-6.239007E-2,1.0635617E-1,3.496853E-2,-8.765533E-2],"split_indices":[13,3,2,14,3,7,14,15,10,8,16,8,5,5,14,10,8,0,14,8,16,5,16,15,3,2,7,2,14,15,2,0,0,0,0,0,0,0,0,0,0,0,0,0,0,0,0,0,0,0,0,0,0,0,0,0,0,0,0,0,0],"split_type":[0,0,0,0,0,0,0,0,0,0,0,0,0,0,0,0,0,0,0,0,0,0,0,0,0,0,0,0,0,0,0,0,0,0,0,0,0,0,0,0,0,0,0,0,0,0,0,0,0,0,0,0,0,0,0,0,0,0,0,0,0],"sum_hessian":[1.6926686E4,1.6102752E4,8.239336E2,2.8843418E3,1.321841E4,6.34658E2,1.8927553E2,2.877457E3,6.8847256E0,1.2142387E4,1.0760239E3,5.86817E2,4.784104E1,1.7589293E2,1.3382594E1,4.6063675E2,2.4168203E3,1.0435591E0,5.8411665E0,1.2049685E4,9.270198E1,1.3276915E2,9.432548E2,2.3192426E2,3.5489273E2,2.450327E0,4.5390717E1,4.3836484E0,1.7150928E2,6.8424616E0,6.5401325E0,2.278531E1,4.3785144E2,5.6604767E2,1.8507727E3,4.8018737E0,1.0392929E0,1.6039261E3,1.0445758E4,2.640982E0,9.0061005E1,1.1910882E2,1.3660327E1,6.307749E2,3.1247992E2,2.6724932E1,2.0519933E2,3.486164E2,6.2763343E0,1.1260184E0,1.3243084E0,8.497295E0,3.689342E1,1.9387752E0,2.444873E0,3.44337E1,1.3707559E2,1.1208287E0,5.721633E0,1.0634185E0,5.476714E0],"tree_param":{"num_deleted":"0","num_feature":"17","num_nodes":"61","size_leaf_vector":"1"}},{"base_weights":[-1.1934154E-2,8.052055E-3,-1.8666762E-1,-6.97774E-2,3.4811433E-2,-1.5770915E-1,-6.1601734E-1,1.7704314E-1,-8.244247E-2,-1.1547346E-1,4.855026E-2,-2.0817924E-1,-3.756304E-2,-6.9649965E-1,-2.447587E-2,1.08606905E-1,1.0404663E0,-1.5258967E-2,-1.2602054E-1,3.867358E-2,-1.9062935E-1,6.888747E-2,-5.6595415E-2,-3.449595E-1,-1.5594102E-1,1.6857037E-2,-4.2570272E-1,5.893734E-1,-7.374301E-1,5.868713E-1,-6.206098E-1,-4.4872373E-2,1.5901735E-2,1.4217879E-1,-3.6298116E-3,6.826304E-2,-2.1920807E-3,-1.9561224E-2,-2.3389338E-3,1.1095337E-2,-3.5715554E-2,-3.426106E-2,-6.81008E-3,-2.0408179E-3,1.0033243E-2,3.0046685E-2,-8.9962175E-3,4.889796E-3,-4.2075213E-2,-1.686663E-2,4.9185168E-2,-4.8653346E-2,6.1255815E-3,-7.847515E-2,-1.7838065E-2,1.1041584E-1,-2.0053644E-2,-7.935605E-2,-9.444605E-3,-4.819376E-2,1.1140802E-1,3.4652136E-2,-9.7041994E-2],"categories":[],"categories_nodes":[],"categories_segments":[],"categories_sizes":[],"default_left":[0,0,0,0,0,0,0,0,0,0,0,0,0,0,0,0,0,0,0,0,0,0,0,0,0,0,0,0,0,0,0,0,0,0,0,0,0,0,0,0,0,0,0,0,0,0,0,0,0,0,0,0,0,0,0,0,0,0,0,0,0,0,0],"id":19,"left_children":[1,3,5,7,9,11,13,15,17,19,21,23,25,27,29,31,33,35,37,39,41,43,45,47,49,51,53,55,57,59,61,-1,-1,-1,-1,-1,-1,-1,-1,-1,-1,-1,-1,-1,-1,-1,-1,-1,-1,-1,-1,-1,-1,-1,-1,-1,-1,-1,-1,-1,-1,-1,-1],"loss_changes":[5.9040623E1,3.1599518E1,2.1477875E1,1.2149712E1,2.3317432E1,9.857712E0,5.1865387E0,1.1101677E1,1.0810768E1,1.0966814E1,2.2126307E1,8.130749E0,1.0198661E1,5.496338E0,5.512447E0,5.043371E0,5.7267685E0,6.775838E0,1.5994209E1,8.934325E0,1.1822302E1,2.4344284E1,2.0009846E1,9.445976E0,6.9309006E0,9.508932E0,5.13198E0,1.6538433E0,3.304985E0,4.7563496E0,2.9203446E0,0E0,0E0,0E0,0E0,0E0,0E0,0E0,0E0,0E0,0E0,0E0,0E0,0E0,0E0,0E0,0E0,0E0,0E0,0E0,0E0,0E0,0E0,0E0,0E0,0E0,0E0,0E0,0E0,0E0,0E0,0E0,0E0],"parents":[2147483647,0,0,1,1,2,2,3,3,4,4,5,5,6,6,7,7,8,8,9,9,10,10,11,11,12,12,13,13,14,14,15,15,16,16,17,17,18,18,19,19,20,20,21,21,22,22,23,23,24,24,25,25,26,26,27,27,28,28,29,29,30,30],"right_children":[2,4,6,8,10,12,14,16,18,20,22,24,26,28,30,32,34,36,38,40,42,44,46,48,50,52,54,56,58,60,62,-1,-1,-1,-1,-1,-1,-1,-1,-1,-1,-1,-1,-1,-1,-1,-1,-1,-1,-1,-1,-1,-1,-1,-1,-1,-1,-1,-1,-1,-1,-1,-1],"split_conditions":[9.818914E1,4.3369957E1,1.9291296E2,-1.9768066E0,2.1805956E1,9.22794E1,1.404541E0,4.2468597E1,9.015624E1,-2.11091E0,1.334149E2,-1.3555479E0,2.3281403E0,-2.1201172E0,1.3503418E0,3.6833298E1,-2.3945293E0,-3.0898438E0,9.262223E1,7.170404E1,1.6000901E0,2.3419601E1,-1.5375977E0,4.7001194E1,3.0588815E0,4.0035244E1,2.6510544E0,9.3406075E1,2.948449E2,2.3313533E2,-1.6791992E0,-4.4872373E-2,1.5901735E-2,1.4217879E-1,-3.6298116E-3,6.826304E-2,-2.1920807E-3,-1.9561224E-2,-2.3389338E-3,1.1095337E-2,-3.5715554E-2,-3.426106E-2,-6.81008E-3,-2.0408179E-3,1.0033243E-2,3.0046685E-2,-8.9962175E-3,4.889796E-3,-4.2075213E-2,-1.686663E-2,4.9185168E-2,-4.8653346E-2,6.1255815E-3,-7.847515E-2,-1.7838065E-2,1.1041584E-1,-2.0053644E-2,-7.935605E-2,-9.444605E-3,-4.819376E-2,1.1140802E-1,3.4652136E-2,-9.7041994E-2],"split_indices":[13,0,0,3,11,9,3,0,9,16,2,16,16,3,6,2,14,10,9,13,16,13,3,2,16,0,16,11,11,0,10,0,0,0,0,0,0,0,0,0,0,0,0,0,0,0,0,0,0,0,0,0,0,0,0,0,0,0,0,0,0,0,0],"split_type":[0,0,0,0,0,0,0,0,0,0,0,0,0,0,0,0,0,0,0,0,0,0,0,0,0,0,0,0,0,0,0,0,0,0,0,0,0,0,0,0,0,0,0,0,0,0,0,0,0,0,0,0,0,0,0,0,0,0,0,0,0,0,0],"sum_hessian":[1.6904707E4,1.5170449E4,1.7342589E3,3.8809954E3,1.1289453E4,1.6259596E3,1.0829927E2,1.8879161E2,3.6922039E3,9.4499817E2,1.0344455E4,1.1444674E3,4.8149213E2,9.517304E1,1.3126223E1,1.7596976E2,1.2821845E1,1.4531931E3,2.2390107E3,3.098899E2,6.351083E2,8.668202E3,1.6762532E3,3.1474283E2,8.297246E2,4.2312363E2,5.8368515E1,2.5226276E0,9.265042E1,6.4880924E0,6.63813E0,1.3940806E1,1.6202896E2,9.232023E0,3.589822E0,1.2781147E1,1.440412E3,1.3337332E3,9.0527765E2,2.6264896E2,4.7240925E1,2.8268143E2,3.5242685E2,2.257586E3,6.410616E3,1.4257149E2,1.5336818E3,5.085081E1,2.63892E2,8.144649E2,1.5259758E1,3.3487396E1,3.8963623E2,2.2920618E1,3.54479E1,1.286431E0,1.2361966E0,8.499633E1,7.6540837E0,2.171562E0,4.3165307E0,1.7657382E0,4.8723917E0],"tree_param":{"num_deleted":"0","num_feature":"17","num_nodes":"63","size_leaf_vector":"1"}},{"base_weights":[-9.769739E-3,1.0497893E-2,-1.4887488E-1,-3.258427E-2,5.4067794E-2,-9.827971E-2,-3.342447E-1,-1.3138016E-1,1.0075922E-2,5.7895575E-2,-6.368498E-1,-5.8832955E-2,-2.74598E-1,-4.9503794E-1,-1.5459722E-1,-2.777608E-1,-5.374155E-2,2.9724194E-2,-1.7123903E-1,8.267209E-2,-4.2130023E-2,1.776123E-1,-8.122322E-1,4.7134227E-1,-7.224417E-2,1.971128E-1,-3.2988942E-1,-3.1713337E-1,-6.185873E-1,-2.6719278E-2,-4.2179754E-1,-4.0224757E-2,-2.0948246E-2,-8.630877E-3,3.396476E-2,-1.3927407E-2,4.921436E-3,-4.3572687E-2,-1.25056E-3,-2.3988842E-3,1.2538061E-2,1.3324874E-2,-1.2163537E-2,1.1908028E-1,-5.54219E-2,1.128338E-2,-9.168267E-2,-2.2788858E-2,8.0872834E-2,-2.0179017E-2,-1.5554945E-3,1.1665187E-1,6.739554E-3,-7.281079E-2,-2.5466457E-2,-3.5412412E-2,1.3025844E-1,-5.272697E-3,-6.6318356E-2,-8.528851E-3,6.1617225E-2,5.1506348E-2,-5.390023E-2],"categories":[],"categories_nodes":[],"categories_segments":[],"categories_sizes":[],"default_left":[0,0,0,0,0,0,0,0,0,0,0,0,0,0,0,0,0,0,0,0,0,0,0,0,0,0,0,0,0,0,0,0,0,0,0,0,0,0,0,0,0,0,0,0,0,0,0,0,0,0,0,0,0,0,0,0,0,0,0,0,0,0,0],"id":20,"left_children":[1,3,5,7,9,11,13,15,17,19,21,23,25,27,29,31,33,35,37,39,41,43,45,47,49,51,53,55,57,59,61,-1,-1,-1,-1,-1,-1,-1,-1,-1,-1,-1,-1,-1,-1,-1,-1,-1,-1,-1,-1,-1,-1,-1,-1,-1,-1,-1,-1,-1,-1,-1,-1],"loss_changes":[4.7662167E1,2.7700115E1,2.0130543E1,3.1274767E1,1.9440538E1,1.1740385E1,1.3227203E1,2.541766E1,1.8470848E1,1.808843E1,5.9303226E0,9.864535E0,8.117914E0,5.1356964E0,7.471062E0,6.5058556E0,1.8779198E1,1.5413321E1,2.127681E1,2.6647041E1,2.0225729E1,6.590063E0,3.3456802E0,8.262665E0,9.906133E0,4.073588E0,8.104511E0,6.5408926E0,3.551136E0,5.6693E0,8.053018E0,0E0,0E0,0E0,0E0,0E0,0E0,0E0,0E0,0E0,0E0,0E0,0E0,0E0,0E0,0E0,0E0,0E0,0E0,0E0,0E0,0E0,0E0,0E0,0E0,0E0,0E0,0E0,0E0,0E0,0E0,0E0,0E0],"parents":[2147483647,0,0,1,1,2,2,3,3,4,4,5,5,6,6,7,7,8,8,9,9,10,10,11,11,12,12,13,13,14,14,15,15,16,16,17,17,18,18,19,19,20,20,21,21,22,22,23,23,24,24,25,25,26,26,27,27,28,28,29,29,30,30],"right_children":[2,4,6,8,10,12,14,16,18,20,22,24,26,28,30,32,34,36,38,40,42,44,46,48,50,52,54,56,58,60,62,-1,-1,-1,-1,-1,-1,-1,-1,-1,-1,-1,-1,-1,-1,-1,-1,-1,-1,-1,-1,-1,-1,-1,-1,-1,-1,-1,-1,-1,-1,-1,-1],"split_conditions":[9.226522E1,5.9418602E1,1.08976555E2,3.0418243E1,5.814654E2,1.3592046E2,5.525391E1,5.2399582E1,1.0263197E2,7.0434555E1,-8.613281E-1,-2.1645508E0,2.3460484E1,7.320839E1,1.8747693E2,1.0727535E1,3.0204065E0,1.7129618E1,3.865884E1,6.9816536E1,4.51546E1,-2.2290352E-1,-3.1151295E0,-1.1456041E0,5.2105377E1,-3.4663432E0,-2.1230469E0,6.1503754E1,-1.7478027E0,2.6347656E0,2.5332584E1,-4.0224757E-2,-2.0948246E-2,-8.630877E-3,3.396476E-2,-1.3927407E-2,4.921436E-3,-4.3572687E-2,-1.25056E-3,-2.3988842E-3,1.2538061E-2,1.3324874E-2,-1.2163537E-2,1.1908028E-1,-5.54219E-2,1.128338E-2,-9.168267E-2,-2.2788858E-2,8.0872834E-2,-2.0179017E-2,-1.5554945E-3,1.1665187E-1,6.739554E-3,-7.281079E-2,-2.5466457E-2,-3.5412412E-2,1.3025844E-1,-5.272697E-3,-6.6318356E-2,-8.528851E-3,6.1617225E-2,5.1506348E-2,-5.390023E-2],"split_indices":[13,0,0,13,8,13,11,8,2,13,6,6,5,2,0,13,16,8,11,8,8,1,16,16,0,12,4,5,6,4,5,0,0,0,0,0,0,0,0,0,0,0,0,0,0,0,0,0,0,0,0,0,0,0,0,0,0,0,0,0,0,0,0],"split_type":[0,0,0,0,0,0,0,0,0,0,0,0,0,0,0,0,0,0,0,0,0,0,0,0,0,0,0,0,0,0,0,0,0,0,0,0,0,0,0,0,0,0,0,0,0,0,0,0,0,0,0,0,0,0,0,0,0,0,0,0,0,0,0],"sum_hessian":[1.6903928E4,1.4755042E4,2.1488865E3,7.419174E3,7.335868E3,1.6893282E3,4.595582E2,2.2368403E3,5.1823335E3,7.2963613E3,3.950664E1,1.3815706E3,3.0775775E2,2.4157825E2,2.1797993E2,7.7433093E2,1.4625094E3,4.6764087E3,5.0592493E2,5.84798E3,1.4483815E3,6.9976015E0,3.250904E1,3.3243305E1,1.3483271E3,3.2019875E1,2.7573785E2,1.0047148E2,1.4110677E2,1.4816869E2,6.981125E1,2.7253928E2,5.0179163E2,1.3514116E3,1.1109773E2,4.829166E2,4.193492E3,1.8909781E2,3.1682715E2,1.6722112E3,4.175769E3,4.5157904E2,9.968024E2,2.6716528E0,4.3259487E0,3.2943182E0,2.9214722E1,1.0925277E1,2.231803E1,4.096461E2,9.386811E2,2.8356507E0,2.9184225E1,4.2432648E1,2.3330522E2,9.899209E1,1.4793899E0,1.0467837E1,1.3063893E2,1.365921E2,1.1576589E1,7.385071E0,6.2426178E1],"tree_param":{"num_deleted":"0","num_feature":"17","num_nodes":"63","size_leaf_vector":"1"}},{"base_weights":[-1.88875E-4,7.588964E-2,-2.4076967E-2,5.526218E-2,2.4918693E-1,-2.9139024E-1,-1.5087397E-2,1.3385212E-1,6.9297184E-3,-1.3065572E-1,3.018554E-1,-2.6315686E-1,-7.135938E-1,-3.8587596E-2,5.9709493E-2,-4.6267867E-2,1.6323483E-1,1.6787354E-2,-3.4650943E-1,2.5830644E-1,-7.2438145E-1,3.0544123E-2,3.7027472E-1,-2.90254E-1,6.636034E-1,-8.601315E-1,1.024827E-2,-2.248188E-2,-1.5226851E-1,1.4691104E-1,2.6127446E-2,6.645366E-2,-1.1535987E-2,6.897881E-2,1.5077836E-2,-1.1530459E-2,4.1938354E-3,7.432519E-2,-4.6292167E-2,3.8732578E-5,1.1886138E-1,7.825258E-2,-8.749338E-2,1.2935732E-1,-8.917286E-3,1.462337E-1,3.4698218E-2,-5.7434645E-2,-2.5443977E-2,1.01615086E-1,-8.599981E-2,-9.249844E-2,5.05635E-3,-9.631476E-2,1.1726055E-1,-6.264867E-3,2.9047679E-3,-1.7465478E-2,2.03595E-2,1.3260672E-2,8.759568E-2,-1.4169415E-3,1.30804125E-2],"categories":[],"categories_nodes":[],"categories_segments":[],"categories_sizes":[],"default_left":[0,0,0,0,0,0,0,0,0,0,0,0,0,0,0,0,0,0,0,0,0,0,0,0,0,0,0,0,0,0,0,0,0,0,0,0,0,0,0,0,0,0,0,0,0,0,0,0,0,0,0,0,0,0,0,0,0,0,0,0,0,0,0],"id":21,"left_children":[1,3,5,7,9,11,13,15,17,19,21,23,25,27,29,31,33,35,37,39,41,43,45,47,49,51,53,55,57,59,61,-1,-1,-1,-1,-1,-1,-1,-1,-1,-1,-1,-1,-1,-1,-1,-1,-1,-1,-1,-1,-1,-1,-1,-1,-1,-1,-1,-1,-1,-1,-1,-1],"loss_changes":[3.0607096E1,1.4372318E1,3.0795193E1,1.3664547E1,8.597647E0,4.7823334E0,2.1800108E1,7.2578506E0,7.7708E0,1.2378545E1,6.968292E0,1.0046726E1,2.718915E0,1.7274681E1,8.679312E0,9.5508E0,7.6226845E0,7.2114086E0,8.021673E0,7.8295894E0,5.484829E0,1.1729938E1,7.128338E0,3.739994E0,7.024975E0,1.3024254E0,7.11451E0,1.7112654E1,9.363359E0,8.478987E0,9.036894E0,0E0,0E0,0E0,0E0,0E0,0E0,0E0,0E0,0E0,0E0,0E0,0E0,0E0,0E0,0E0,0E0,0E0,0E0,0E0,0E0,0E0,0E0,0E0,0E0,0E0,0E0,0E0,0E0,0E0,0E0,0E0,0E0],"parents":[2147483647,0,0,1,1,2,2,3,3,4,4,5,5,6,6,7,7,8,8,9,9,10,10,11,11,12,12,13,13,14,14,15,15,16,16,17,17,18,18,19,19,20,20,21,21,22,22,23,23,24,24,25,25,26,26,27,27,28,28,29,29,30,30],"right_children":[2,4,6,8,10,12,14,16,18,20,22,24,26,28,30,32,34,36,38,40,42,44,46,48,50,52,54,56,58,60,62,-1,-1,-1,-1,-1,-1,-1,-1,-1,-1,-1,-1,-1,-1,-1,-1,-1,-1,-1,-1,-1,-1,-1,-1,-1,-1,-1,-1,-1,-1,-1,-1],"split_conditions":[-9.448242E-1,-1.0976985E0,2.079087E1,-1.7294922E0,2.3483994E1,2.0073242E0,1.1630859E0,2.6856794E1,1.02307976E2,7.5094044E-1,-1.9631348E0,1.8908691E0,4.4989574E1,8.34278E1,8.8913475E1,-2.555048E0,-3.1232975E0,2.5973711E1,-3.0882123E0,2.2257462E0,8.535096E1,3.1535463E1,-5.449571E0,-1.1166401E0,1.800139E0,1.0372192E2,2.3990507E0,7.646704E1,1.3851365E0,3.0175781E0,9.339202E1,6.645366E-2,-1.1535987E-2,6.897881E-2,1.5077836E-2,-1.1530459E-2,4.1938354E-3,7.432519E-2,-4.6292167E-2,3.8732578E-5,1.1886138E-1,7.825258E-2,-8.749338E-2,1.2935732E-1,-8.917286E-3,1.462337E-1,3.4698218E-2,-5.7434645E-2,-2.5443977E-2,1.01615086E-1,-8.599981E-2,-9.249844E-2,5.05635E-3,-9.631476E-2,1.1726055E-1,-6.264867E-3,2.9047679E-3,-1.7465478E-2,2.03595E-2,1.3260672E-2,8.759568E-2,-1.4169415E-3,1.30804125E-2],"split_indices":[3,14,11,3,11,3,3,8,5,1,7,3,5,11,9,15,14,5,16,15,9,2,12,14,1,8,14,8,14,7,9,0,0,0,0,0,0,0,0,0,0,0,0,0,0,0,0,0,0,0,0,0,0,0,0,0,0,0,0,0,0,0,0],"split_type":[0,0,0,0,0,0,0,0,0,0,0,0,0,0,0,0,0,0,0,0,0,0,0,0,0,0,0,0,0,0,0,0,0,0,0,0,0,0,0,0,0,0,0,0,0,0,0,0,0,0,0,0,0,0,0,0,0,0,0,0,0,0,0],"sum_hessian":[1.6839412E4,4.0234375E3,1.2815974E4,3.5966494E3,4.2678793E2,4.1594824E2,1.2400025E4,1.3689419E3,2.2277075E3,5.1791203E1,3.7499673E2,3.9139816E2,2.4550074E1,9.43588E3,2.9641455E3,1.9191315E2,1.1770287E3,2.168188E3,5.9519592E1,3.1632818E1,2.0158382E1,7.581298E1,2.9918375E2,3.8094666E2,1.0451517E1,2.0260221E1,4.2898526E0,8.265995E3,1.1698853E3,8.2319745E2,2.140948E3,1.6238337E1,1.7567482E2,2.5944435E1,1.1510842E3,3.462282E2,1.8219598E3,5.22476E0,5.4294834E1,2.5549791E1,6.0830274E0,1.449761E0,1.8708622E1,5.714892E0,7.009809E1,4.957795E0,2.9422595E2,4.0964363E1,3.399823E2,8.758046E0,1.6934716E0,1.8898706E1,1.3615144E0,2.427973E0,1.8618797E0,4.6450264E3,3.6209685E3,1.1011261E3,6.8759155E1,8.085158E2,1.4681677E1,1.5464741E3,5.944739E2],"tree_param":{"num_deleted":"0","num_feature":"17","num_nodes":"63","size_leaf_vector":"1"}},{"base_weights":[-9.709527E-3,-1.1282413E-1,3.4431138E-3,1.0991287E-1,-1.3999738E-1,-6.542661E-3,1.3598336E-1,4.8073995E-1,2.6512833E-3,-5.1526904E-2,-2.102627E-1,6.1494227E-2,-3.0526465E-2,7.3496955E-3,1.9010113E-1,7.648933E-1,-3.3837173E-2,1.4054255E-1,-3.4743464E-1,5.3952947E-2,-1.4765084E-1,-4.1468185E-1,-1.7036186E-1,6.741505E-2,-5.2370644E-1,-9.865592E-3,-1.0385166E-1,3.611762E-1,-6.6581115E-2,4.7703865E-1,1.488974E-1,9.094152E-2,-9.246182E-2,-4.3265406E-2,7.836985E-2,1.03002265E-2,1.6581987E-1,1.2549767E-2,-6.979192E-2,-3.2862884E-3,4.508133E-2,-1.9421687E-2,8.992516E-2,-9.204214E-2,-3.233097E-2,-2.139011E-2,7.5914697E-3,5.167776E-2,6.1282977E-3,4.736324E-2,-7.3305316E-2,-1.5378999E-2,4.8965774E-4,-3.49524E-2,-8.397686E-3,1.2028674E-1,2.1650989E-2,-9.414516E-3,9.033439E-2,-5.227834E-2,6.4236306E-2,2.1331446E-2,-5.1699914E-3],"categories":[],"categories_nodes":[],"categories_segments":[],"categories_sizes":[],"default_left":[0,0,0,0,0,0,0,0,0,0,0,0,0,0,0,0,0,0,0,0,0,0,0,0,0,0,0,0,0,0,0,0,0,0,0,0,0,0,0,0,0,0,0,0,0,0,0,0,0,0,0,0,0,0,0,0,0,0,0,0,0,0,0],"id":22,"left_children":[1,3,5,7,9,11,13,15,17,19,21,23,25,27,29,31,33,35,37,39,41,43,45,47,49,51,53,55,57,59,61,-1,-1,-1,-1,-1,-1,-1,-1,-1,-1,-1,-1,-1,-1,-1,-1,-1,-1,-1,-1,-1,-1,-1,-1,-1,-1,-1,-1,-1,-1,-1,-1],"loss_changes":[2.283172E1,1.1541805E1,1.9762337E1,8.257336E0,1.0543255E1,2.2660583E1,7.2812653E0,6.836376E0,7.8717504E0,7.6412835E0,7.6447678E0,1.2576303E1,1.5553679E1,8.155095E0,8.6343975E0,8.178108E0,6.053971E0,6.4935102E0,7.725691E0,1.2407542E1,1.9390228E1,6.808899E0,8.520813E0,9.844416E0,7.9403715E0,1.7022106E1,1.09907055E1,6.300044E0,6.9815435E0,1.5543558E1,8.349719E0,0E0,0E0,0E0,0E0,0E0,0E0,0E0,0E0,0E0,0E0,0E0,0E0,0E0,0E0,0E0,0E0,0E0,0E0,0E0,0E0,0E0,0E0,0E0,0E0,0E0,0E0,0E0,0E0,0E0,0E0,0E0,0E0],"parents":[2147483647,0,0,1,1,2,2,3,3,4,4,5,5,6,6,7,7,8,8,9,9,10,10,11,11,12,12,13,13,14,14,15,15,16,16,17,17,18,18,19,19,20,20,21,21,22,22,23,23,24,24,25,25,26,26,27,27,28,28,29,29,30,30],"right_children":[2,4,6,8,10,12,14,16,18,20,22,24,26,28,30,32,34,36,38,40,42,44,46,48,50,52,54,56,58,60,62,-1,-1,-1,-1,-1,-1,-1,-1,-1,-1,-1,-1,-1,-1,-1,-1,-1,-1,-1,-1,-1,-1,-1,-1,-1,-1,-1,-1,-1,-1,-1,-1],"split_conditions":[3.610376E1,-2.2597184E0,1.8032227E0,-2.1201172E0,-4.229369E-1,-9.283447E-1,2.819105E1,7.756974E-1,4.1375908E1,-1.3742065E-1,-2.1733398E0,3.2573444E2,6.1944336E1,5.247803E-1,-2.3238387E0,4.247662E0,8.803711E-1,4.0664276E1,-4.7937012E-1,2.5994563E0,9.701536E1,-4.416504E-1,1.4536133E0,-5.449571E0,-1.8874512E0,2.1805956E1,-1.0207491E0,-2.40625E0,3.0175781E0,5.3930664E-1,1.5822754E0,9.094152E-2,-9.246182E-2,-4.3265406E-2,7.836985E-2,1.03002265E-2,1.6581987E-1,1.2549767E-2,-6.979192E-2,-3.2862884E-3,4.508133E-2,-1.9421687E-2,8.992516E-2,-9.204214E-2,-3.233097E-2,-2.139011E-2,7.5914697E-3,5.167776E-2,6.1282977E-3,4.736324E-2,-7.3305316E-2,-1.5378999E-2,4.8965774E-4,-3.49524E-2,-8.397686E-3,1.2028674E-1,2.1650989E-2,-9.414516E-3,9.033439E-2,-5.227834E-2,6.4236306E-2,2.1331446E-2,-5.1699914E-3],"split_indices":[0,14,3,3,12,3,11,1,11,7,4,0,11,6,1,12,10,11,7,1,9,10,6,12,3,11,14,10,7,6,10,0,0,0,0,0,0,0,0,0,0,0,0,0,0,0,0,0,0,0,0,0,0,0,0,0,0,0,0,0,0,0,0],"split_type":[0,0,0,0,0,0,0,0,0,0,0,0,0,0,0,0,0,0,0,0,0,0,0,0,0,0,0,0,0,0,0,0,0,0,0,0,0,0,0,0,0,0,0,0,0,0,0,0,0,0,0,0,0,0,0,0,0,0,0,0,0,0,0],"sum_hessian":[1.683342E4,1.90341E3,1.4930009E4,2.0663058E2,1.6967795E3,1.38848545E4,1.0451544E3,4.557742E1,1.6105318E2,7.518565E2,9.44923E2,3.61847E3,1.0266385E4,3.0983554E2,7.353189E2,2.9049576E1,1.6527842E1,1.1597262E2,4.5080555E1,3.586916E2,3.9316495E2,1.52785E2,7.92138E2,3.5831023E3,3.536759E1,8.0104194E3,2.2559648E3,5.287846E1,2.5695706E2,9.100365E1,6.4431525E2,2.7185812E1,1.8637624E0,1.1425127E1,5.1027155E0,1.14215294E2,1.7573259E0,1.9461618E1,2.5618937E1,2.95062E2,6.3629578E1,3.7720157E2,1.5963376E1,2.1991262E1,1.3079373E2,6.732462E2,1.1889174E2,4.7116283E1,3.535986E3,5.9168706E0,2.945072E1,7.44311E2,7.266109E3,1.6760573E2,2.0883591E3,6.6826987E0,4.6195763E1,2.5073445E2,6.222622E0,1.2605854E1,7.83978E1,4.876535E2,1.5666174E2],"tree_param":{"num_deleted":"0","num_feature":"17","num_nodes":"63","size_leaf_vector":"1"}},{"base_weights":[-2.1243757E-3,1.3503272E-3,-3.3908445E-1,-1.4796498E-1,9.646684E-3,-5.829681E-1,-1.8552008E-1,7.2538815E-2,-2.3037988E-1,2.8268907E-3,1.8246253E-1,2.3219423E-2,-6.9587684E-1,-4.102032E-3,-4.175846E-1,3.5626298E-1,-7.141622E-2,-5.0537273E-2,-3.2062173E-1,7.697229E-2,-1.5429129E-2,-6.743454E-1,2.1256801E-1,-6.410572E-1,9.8957264E-1,-7.8774863E-1,-2.1364702E-2,1.4732727E-1,-7.943519E-2,-6.4494485E-1,1.6921188E-1,3.095781E-3,6.927736E-2,-4.3092992E-2,9.393674E-3,4.2172964E-4,-7.6799944E-2,4.420119E-2,-3.518097E-2,8.598945E-3,-3.0192435E-2,-1.1578477E-2,-3.2292807E-4,-8.1070006E-2,3.902276E-2,2.7213493E-2,-3.0237667E-3,8.1927694E-2,-1.0106319E-1,1.641679E-1,-6.60305E-2,3.1595588E-2,-8.356925E-2,1.06149875E-1,-7.723552E-2,-3.602017E-2,2.2498166E-2,3.3468675E-2,-7.713299E-2,-7.789805E-2,5.3851247E-2],"categories":[],"categories_nodes":[],"categories_segments":[],"categories_sizes":[],"default_left":[0,0,0,0,0,0,0,0,0,0,0,0,0,0,0,0,0,0,0,0,0,0,0,0,0,0,0,0,0,0,0,0,0,0,0,0,0,0,0,0,0,0,0,0,0,0,0,0,0,0,0,0,0,0,0,0,0,0,0,0,0],"id":23,"left_children":[1,3,5,7,9,11,13,15,17,19,21,23,25,27,29,31,33,35,37,39,41,43,45,47,49,51,53,-1,55,57,59,-1,-1,-1,-1,-1,-1,-1,-1,-1,-1,-1,-1,-1,-1,-1,-1,-1,-1,-1,-1,-1,-1,-1,-1,-1,-1,-1,-1,-1,-1],"loss_changes":[1.969994E1,2.0632463E1,6.3235474E0,1.5949081E1,1.8595753E1,4.5256863E0,4.4965763E0,9.798803E0,1.0345051E1,2.054975E1,1.5594728E1,7.8963933E0,3.4269924E0,6.903434E0,6.362176E0,8.813801E0,9.526835E0,8.429783E0,1.026236E1,1.027383E1,1.4914601E1,3.3026838E0,8.388821E0,4.77384E0,6.4653215E0,2.8507729E0,7.0734196E0,0E0,5.120949E0,4.4663076E0,5.2801194E0,0E0,0E0,0E0,0E0,0E0,0E0,0E0,0E0,0E0,0E0,0E0,0E0,0E0,0E0,0E0,0E0,0E0,0E0,0E0,0E0,0E0,0E0,0E0,0E0,0E0,0E0,0E0,0E0,0E0,0E0],"parents":[2147483647,0,0,1,1,2,2,3,3,4,4,5,5,6,6,7,7,8,8,9,9,10,10,11,11,12,12,13,13,14,14,15,15,16,16,17,17,18,18,19,19,20,20,21,21,22,22,23,23,24,24,25,25,26,26,28,28,29,29,30,30],"right_children":[2,4,6,8,10,12,14,16,18,20,22,24,26,28,30,32,34,36,38,40,42,44,46,48,50,52,54,-1,56,58,60,-1,-1,-1,-1,-1,-1,-1,-1,-1,-1,-1,-1,-1,-1,-1,-1,-1,-1,-1,-1,-1,-1,-1,-1,-1,-1,-1,-1,-1,-1],"split_conditions":[2.3103786E2,1.6523132E1,6.926408E1,8.882301E1,2.041504E0,8.7709435E1,3.8070685E-1,-2.0074184E0,2.743047E1,-1.1572266E0,